<?xml version="1.0"?>
<opencv_storage>
<cascade>
  <stageType>BOOST</stageType>
  <featureType>HAAR</featureType>
  <height>24</height>
  <width>24</width>
  <stageParams>
    <boostType>GAB</boostType>
    <minHitRate>9.9500000476837158e-01</minHitRate>
    <maxFalseAlarm>5.0000000000000000e-01</maxFalseAlarm>
    <weightTrimRate>9.4999999999999996e-01</weightTrimRate>
    <maxDepth>1</maxDepth>
    <maxWeakCount>100</maxWeakCount></stageParams>
  <featureParams>
    <maxCatCount>0</maxCatCount>
    <featSize>1</featSize>
    <mode>BASIC</mode></featureParams>
  <stageNum>32</stageNum>
  <stages>
    <!-- stage 0 -->
    <_>
      <maxWeakCount>3</maxWeakCount>
      <stageThreshold>-1.0395220518112183e+00</stageThreshold>
      <weakClassifiers>
        <_>
          <internalNodes>
            0 -1 41 -9.9899935722351074e-01</internalNodes>
          <leafValues>
            -8.4792625904083252e-01 8.2435131072998047e-01</leafValues></_>
        <_>
          <internalNodes>
            0 -1 191 -3.7527330219745636e-02</internalNodes>
          <leafValues>
            7.0583510398864746e-01 -6.8541234731674194e-01</leafValues></_>
        <_>
          <internalNodes>
            0 -1 15 -9.9292382597923279e-02</internalNodes>
          <leafValues>
            -8.9743089675903320e-01 5.2809226512908936e-01</leafValues></_></weakClassifiers></_>
    <!-- stage 1 -->
    <_>
      <maxWeakCount>6</maxWeakCount>
      <stageThreshold>-1.1599185466766357e+00</stageThreshold>
      <weakClassifiers>
        <_>
          <internalNodes>
            0 -1 111 2.2752933204174042e-01</internalNodes>
          <leafValues>
            -6.0994261503219604e-01 8.8349515199661255e-01</leafValues></_>
        <_>
          <internalNodes>
            0 -1 14 -2.9863968491554260e-02</internalNodes>
          <leafValues>
            -5.2018594741821289e-01 6.5603202581405640e-01</leafValues></_>
        <_>
          <internalNodes>
            0 -1 28 1.0588938370347023e-02</internalNodes>
          <leafValues>
            -4.4960913062095642e-01 5.9956544637680054e-01</leafValues></_>
        <_>
          <internalNodes>
            0 -1 188 -6.0990199446678162e-02</internalNodes>
          <leafValues>
            4.9907660484313965e-01 -5.0104999542236328e-01</leafValues></_>
        <_>
          <internalNodes>
            0 -1 6 -1.3418183661997318e-02</internalNodes>
          <leafValues>
            -5.7565194368362427e-01 4.3377661705017090e-01</leafValues></_>
        <_>
          <internalNodes>
            0 -1 409 9.7956964746117592e-03</internalNodes>
          <leafValues>
            -3.9264884591102600e-01 4.9639445543289185e-01</leafValues></_></weakClassifiers></_>
    <!-- stage 2 -->
    <_>
      <maxWeakCount>8</maxWeakCount>
      <stageThreshold>-9.8915416002273560e-01</stageThreshold>
      <weakClassifiers>
        <_>
          <internalNodes>
            0 -1 254 -4.0431290864944458e-02</internalNodes>
          <leafValues>
            7.2511845827102661e-01 -5.0877195596694946e-01</leafValues></_>
        <_>
          <internalNodes>
            0 -1 170 2.5305571034550667e-03</internalNodes>
          <leafValues>
            -4.0795344114303589e-01 5.2629482746124268e-01</leafValues></_>
        <_>
          <internalNodes>
            0 -1 175 1.4735564589500427e-01</internalNodes>
          <leafValues>
            -4.1980257630348206e-01 5.7794260978698730e-01</leafValues></_>
        <_>
          <internalNodes>
            0 -1 598 -7.7559119090437889e-03</internalNodes>
          <leafValues>
            5.7418936491012573e-01 -3.1781247258186340e-01</leafValues></_>
        <_>
          <internalNodes>
            0 -1 89 -3.7843047175556421e-03</internalNodes>
          <leafValues>
            -5.6334114074707031e-01 3.1495463848114014e-01</leafValues></_>
        <_>
          <internalNodes>
            0 -1 117 -6.0890577733516693e-03</internalNodes>
          <leafValues>
            4.9566912651062012e-01 -2.8681623935699463e-01</leafValues></_>
        <_>
          <internalNodes>
            0 -1 601 2.8286478482186794e-03</internalNodes>
          <leafValues>
            -3.3680045604705811e-01 4.4177174568176270e-01</leafValues></_>
        <_>
          <internalNodes>
            0 -1 395 2.6607257314026356e-03</internalNodes>
          <leafValues>
            1.9136299192905426e-01 -7.6733309030532837e-01</leafValues></_></weakClassifiers></_>
    <!-- stage 3 -->
    <_>
      <maxWeakCount>10</maxWeakCount>
      <stageThreshold>-9.9008929729461670e-01</stageThreshold>
      <weakClassifiers>
        <_>
          <internalNodes>
            0 -1 179 1.1315344274044037e-01</internalNodes>
          <leafValues>
            -5.2631580829620361e-01 5.9498953819274902e-01</leafValues></_>
        <_>
          <internalNodes>
            0 -1 20 -7.4056720733642578e-01</internalNodes>
          <leafValues>
            -4.7955837845802307e-01 5.6829142570495605e-01</leafValues></_>
        <_>
          <internalNodes>
            0 -1 358 1.1197000741958618e-02</internalNodes>
          <leafValues>
            -4.3609699606895447e-01 4.9743416905403137e-01</leafValues></_>
        <_>
          <internalNodes>
            0 -1 295 -4.7779455780982971e-03</internalNodes>
          <leafValues>
            6.1266726255416870e-01 -3.0789703130722046e-01</leafValues></_>
        <_>
          <internalNodes>
            0 -1 419 2.4520841543562710e-04</internalNodes>
          <leafValues>
            2.6524561643600464e-01 -6.9989323616027832e-01</leafValues></_>
        <_>
          <internalNodes>
            0 -1 30 -1.2904006242752075e-01</internalNodes>
          <leafValues>
            -7.7003383636474609e-01 2.4808011949062347e-01</leafValues></_>
        <_>
          <internalNodes>
            0 -1 46 6.3095535151660442e-03</internalNodes>
          <leafValues>
            -2.4212723970413208e-01 6.7826843261718750e-01</leafValues></_>
        <_>
          <internalNodes>
            0 -1 18 -3.7959760427474976e-01</internalNodes>
          <leafValues>
            -1.7758502066135406e-01 7.4738085269927979e-01</leafValues></_>
        <_>
          <internalNodes>
            0 -1 403 -1.7834703903645277e-03</internalNodes>
          <leafValues>
            3.1236124038696289e-01 -4.7524648904800415e-01</leafValues></_>
        <_>
          <internalNodes>
            0 -1 442 1.0263666510581970e-02</internalNodes>
          <leafValues>
            -3.3880698680877686e-01 3.8541182875633240e-01</leafValues></_></weakClassifiers></_>
    <!-- stage 4 -->
    <_>
      <maxWeakCount>11</maxWeakCount>
      <stageThreshold>-9.1916656494140625e-01</stageThreshold>
      <weakClassifiers>
        <_>
          <internalNodes>
            0 -1 100 3.6800253391265869e-01</internalNodes>
          <leafValues>
            -3.9622640609741211e-01 5.1091700792312622e-01</leafValues></_>
        <_>
          <internalNodes>
            0 -1 99 6.3003855757415295e-03</internalNodes>
          <leafValues>
            -3.5173445940017700e-01 6.0900956392288208e-01</leafValues></_>
        <_>
          <internalNodes>
            0 -1 619 -6.6856113262474537e-03</internalNodes>
          <leafValues>
            5.5960065126419067e-01 -2.7789485454559326e-01</leafValues></_>
        <_>
          <internalNodes>
            0 -1 230 -2.1959923207759857e-02</internalNodes>
          <leafValues>
            -5.7731610536575317e-01 2.5424003601074219e-01</leafValues></_>
        <_>
          <internalNodes>
            0 -1 183 8.9267671108245850e-02</internalNodes>
          <leafValues>
            -2.0826190710067749e-01 6.8125104904174805e-01</leafValues></_>
        <_>
          <internalNodes>
            0 -1 211 -5.0157666206359863e-02</internalNodes>
          <leafValues>
            -7.6103198528289795e-01 1.7444813251495361e-01</leafValues></_>
        <_>
          <internalNodes>
            0 -1 374 -3.4315548837184906e-03</internalNodes>
          <leafValues>
            -8.1371426582336426e-01 8.8291138410568237e-02</leafValues></_>
        <_>
          <internalNodes>
            0 -1 532 6.6643310710787773e-03</internalNodes>
          <leafValues>
            8.3827264606952667e-02 -9.7048032283782959e-01</leafValues></_>
        <_>
          <internalNodes>
            0 -1 244 6.5304338932037354e-02</internalNodes>
          <leafValues>
            1.2502157688140869e-01 -6.7814290523529053e-01</leafValues></_>
        <_>
          <internalNodes>
            0 -1 25 -1.0088788345456123e-02</internalNodes>
          <leafValues>
            -5.9690111875534058e-01 1.6666606068611145e-01</leafValues></_>
        <_>
          <internalNodes>
            0 -1 158 -8.0800103023648262e-03</internalNodes>
          <leafValues>
            2.2562134265899658e-01 -4.3888163566589355e-01</leafValues></_></weakClassifiers></_>
    <!-- stage 5 -->
    <_>
      <maxWeakCount>11</maxWeakCount>
      <stageThreshold>-7.2723048925399780e-01</stageThreshold>
      <weakClassifiers>
        <_>
          <internalNodes>
            0 -1 292 -4.4849872589111328e-02</internalNodes>
          <leafValues>
            5.4464286565780640e-01 -4.0862423181533813e-01</leafValues></_>
        <_>
          <internalNodes>
            0 -1 150 9.4270497560501099e-02</internalNodes>
          <leafValues>
            -2.3608902096748352e-01 5.8557879924774170e-01</leafValues></_>
        <_>
          <internalNodes>
            0 -1 26 1.5464791096746922e-02</internalNodes>
          <leafValues>
            -2.3590280115604401e-01 5.4531806707382202e-01</leafValues></_>
        <_>
          <internalNodes>
            0 -1 629 -1.5213301405310631e-02</internalNodes>
          <leafValues>
            -2.5854748487472534e-01 4.8992848396301270e-01</leafValues></_>
        <_>
          <internalNodes>
            0 -1 484 4.4139456003904343e-03</internalNodes>
          <leafValues>
            -3.8849219679832458e-01 3.2875066995620728e-01</leafValues></_>
        <_>
          <internalNodes>
            0 -1 159 -5.5356905795633793e-04</internalNodes>
          <leafValues>
            4.5157060027122498e-01 -2.1798078715801239e-01</leafValues></_>
        <_>
          <internalNodes>
            0 -1 423 1.2534092180430889e-02</internalNodes>
          <leafValues>
            1.8282467126846313e-01 -8.1657278537750244e-01</leafValues></_>
        <_>
          <internalNodes>
            0 -1 595 1.2161394115537405e-03</internalNodes>
          <leafValues>
            -2.2064748406410217e-01 5.8790534734725952e-01</leafValues></_>
        <_>
          <internalNodes>
            0 -1 54 -1.6000416874885559e-01</internalNodes>
          <leafValues>
            -8.3633995056152344e-01 1.4635011553764343e-01</leafValues></_>
        <_>
          <internalNodes>
            0 -1 65 1.8784834537655115e-03</internalNodes>
          <leafValues>
            -1.4708226919174194e-01 6.8221265077590942e-01</leafValues></_>
        <_>
          <internalNodes>
            0 -1 562 -1.5252527082338929e-03</internalNodes>
          <leafValues>
            5.6110358238220215e-01 -1.4288975298404694e-01</leafValues></_></weakClassifiers></_>
    <!-- stage 6 -->
    <_>
      <maxWeakCount>9</maxWeakCount>
      <stageThreshold>-9.0060746669769287e-01</stageThreshold>
      <weakClassifiers>
        <_>
          <internalNodes>
            0 -1 216 -9.2288807034492493e-02</internalNodes>
          <leafValues>
            5.2215796709060669e-01 -5.4326921701431274e-01</leafValues></_>
        <_>
          <internalNodes>
            0 -1 521 1.4023194089531898e-03</internalNodes>
          <leafValues>
            1.7949445545673370e-01 -6.9410699605941772e-01</leafValues></_>
        <_>
          <internalNodes>
            0 -1 453 1.3190328609198332e-03</internalNodes>
          <leafValues>
            1.7905724048614502e-01 -6.9618874788284302e-01</leafValues></_>
        <_>
          <internalNodes>
            0 -1 245 2.3914739489555359e-02</internalNodes>
          <leafValues>
            -2.7231270074844360e-01 4.3726897239685059e-01</leafValues></_>
        <_>
          <internalNodes>
            0 -1 386 -1.9381292164325714e-01</internalNodes>
          <leafValues>
            8.6053502559661865e-01 -1.5384787321090698e-01</leafValues></_>
        <_>
          <internalNodes>
            0 -1 257 -1.6971003264188766e-02</internalNodes>
          <leafValues>
            4.7293841838836670e-01 -3.1864225864410400e-01</leafValues></_>
        <_>
          <internalNodes>
            0 -1 431 -8.1523717381060123e-04</internalNodes>
          <leafValues>
            -7.4193298816680908e-01 1.4183142781257629e-01</leafValues></_>
        <_>
          <internalNodes>
            0 -1 630 -1.1553501710295677e-02</internalNodes>
          <leafValues>
            6.1945432424545288e-01 -1.9984239339828491e-01</leafValues></_>
        <_>
          <internalNodes>
            0 -1 345 2.5726156309247017e-03</internalNodes>
          <leafValues>
            1.6894467175006866e-01 -7.4314522743225098e-01</leafValues></_></weakClassifiers></_>
    <!-- stage 7 -->
    <_>
      <maxWeakCount>14</maxWeakCount>
      <stageThreshold>-1.1133375167846680e+00</stageThreshold>
      <weakClassifiers>
        <_>
          <internalNodes>
            0 -1 73 2.9825692996382713e-02</internalNodes>
          <leafValues>
            -3.5211268067359924e-01 5.0228309631347656e-01</leafValues></_>
        <_>
          <internalNodes>
            0 -1 603 -2.6440612971782684e-02</internalNodes>
          <leafValues>
            4.6796783804893494e-01 -2.4305994808673859e-01</leafValues></_>
        <_>
          <internalNodes>
            0 -1 513 -3.1865842640399933e-02</internalNodes>
          <leafValues>
            -8.4610891342163086e-01 1.4286670088768005e-01</leafValues></_>
        <_>
          <internalNodes>
            0 -1 17 4.0755506604909897e-02</internalNodes>
          <leafValues>
            -2.9410117864608765e-01 3.9555275440216064e-01</leafValues></_>
        <_>
          <internalNodes>
            0 -1 146 9.8316907882690430e-02</internalNodes>
          <leafValues>
            -3.6763128638267517e-01 3.7377107143402100e-01</leafValues></_>
        <_>
          <internalNodes>
            0 -1 145 -3.8290297985076904e-01</internalNodes>
          <leafValues>
            9.3174147605895996e-01 -1.0696113854646683e-01</leafValues></_>
        <_>
          <internalNodes>
            0 -1 320 7.2375329909846187e-04</internalNodes>
          <leafValues>
            1.8420222401618958e-01 -6.9521772861480713e-01</leafValues></_>
        <_>
          <internalNodes>
            0 -1 558 -1.7065545544028282e-03</internalNodes>
          <leafValues>
            2.9073277115821838e-01 -3.5305875539779663e-01</leafValues></_>
        <_>
          <internalNodes>
            0 -1 166 -1.1911353096365929e-02</internalNodes>
          <leafValues>
            6.7731863260269165e-01 -1.6301555931568146e-01</leafValues></_>
        <_>
          <internalNodes>
            0 -1 329 -2.3547898977994919e-02</internalNodes>
          <leafValues>
            3.3232077956199646e-01 -2.7526283264160156e-01</leafValues></_>
        <_>
          <internalNodes>
            0 -1 302 -1.6262769699096680e-02</internalNodes>
          <leafValues>
            -8.6005514860153198e-01 1.2220077216625214e-01</leafValues></_>
        <_>
          <internalNodes>
            0 -1 572 2.1674353629350662e-03</internalNodes>
          <leafValues>
            -2.2381015121936798e-01 4.5089972019195557e-01</leafValues></_>
        <_>
          <internalNodes>
            0 -1 638 4.1284295730292797e-03</internalNodes>
          <leafValues>
            -1.3887192308902740e-01 6.4740246534347534e-01</leafValues></_>
        <_>
          <internalNodes>
            0 -1 227 -1.1081220582127571e-02</internalNodes>
          <leafValues>
            3.6251732707023621e-01 -2.8308704495429993e-01</leafValues></_></weakClassifiers></_>
    <!-- stage 8 -->
    <_>
      <maxWeakCount>13</maxWeakCount>
      <stageThreshold>-8.4702908992767334e-01</stageThreshold>
      <weakClassifiers>
        <_>
          <internalNodes>
            0 -1 258 -2.5007098913192749e-02</internalNodes>
          <leafValues>
            4.4988346099853516e-01 -2.9249012470245361e-01</leafValues></_>
        <_>
          <internalNodes>
            0 -1 468 -4.4267913326621056e-03</internalNodes>
          <leafValues>
            5.3610849380493164e-01 -1.8236869573593140e-01</leafValues></_>
        <_>
          <internalNodes>
            0 -1 232 1.1633717454969883e-02</internalNodes>
          <leafValues>
            -3.7126576900482178e-01 3.2574874162673950e-01</leafValues></_>
        <_>
          <internalNodes>
            0 -1 517 2.4622850469313562e-04</internalNodes>
          <leafValues>
            1.7591170966625214e-01 -5.1095110177993774e-01</leafValues></_>
        <_>
          <internalNodes>
            0 -1 644 4.2467815801501274e-03</internalNodes>
          <leafValues>
            -1.3193470239639282e-01 6.3556337356567383e-01</leafValues></_>
        <_>
          <internalNodes>
            0 -1 103 1.6468791291117668e-03</internalNodes>
          <leafValues>
            -3.6157277226448059e-01 2.6098752021789551e-01</leafValues></_>
        <_>
          <internalNodes>
            0 -1 397 1.0613189078867435e-03</internalNodes>
          <leafValues>
            1.4489671587944031e-01 -5.8227252960205078e-01</leafValues></_>
        <_>
          <internalNodes>
            0 -1 172 -7.9308278858661652e-02</internalNodes>
          <leafValues>
            -6.0313528776168823e-01 1.1828369647264481e-01</leafValues></_>
        <_>
          <internalNodes>
            0 -1 289 1.6274832189083099e-02</internalNodes>
          <leafValues>
            9.5551274716854095e-02 -8.8147759437561035e-01</leafValues></_>
        <_>
          <internalNodes>
            0 -1 449 -9.6860964549705386e-04</internalNodes>
          <leafValues>
            -5.1986491680145264e-01 1.2880256772041321e-01</leafValues></_>
        <_>
          <internalNodes>
            0 -1 599 -1.9614982884377241e-03</internalNodes>
          <leafValues>
            3.6264088749885559e-01 -2.0953668653964996e-01</leafValues></_>
        <_>
          <internalNodes>
            0 -1 114 1.4248520135879517e-01</internalNodes>
          <leafValues>
            -3.3751502633094788e-01 2.0748870074748993e-01</leafValues></_>
        <_>
          <internalNodes>
            0 -1 154 -2.4290608242154121e-02</internalNodes>
          <leafValues>
            8.0101805925369263e-01 -1.3743898272514343e-01</leafValues></_></weakClassifiers></_>
    <!-- stage 9 -->
    <_>
      <maxWeakCount>15</maxWeakCount>
      <stageThreshold>-9.5130634307861328e-01</stageThreshold>
      <weakClassifiers>
        <_>
          <internalNodes>
            0 -1 432 -6.0417052358388901e-02</internalNodes>
          <leafValues>
            4.1176471114158630e-01 -3.8823530077934265e-01</leafValues></_>
        <_>
          <internalNodes>
            0 -1 633 -7.6147019863128662e-03</internalNodes>
          <leafValues>
            5.4831081628799438e-01 -2.1885120868682861e-01</leafValues></_>
        <_>
          <internalNodes>
            0 -1 369 -1.3772032223641872e-02</internalNodes>
          <leafValues>
            -5.9413546323776245e-01 1.7116889357566833e-01</leafValues></_>
        <_>
          <internalNodes>
            0 -1 88 -5.0362590700387955e-03</internalNodes>
          <leafValues>
            5.3266596794128418e-01 -1.8236029148101807e-01</leafValues></_>
        <_>
          <internalNodes>
            0 -1 612 9.1675389558076859e-03</internalNodes>
          <leafValues>
            -1.6229119896888733e-01 6.1805611848831177e-01</leafValues></_>
        <_>
          <internalNodes>
            0 -1 47 3.6079175770282745e-03</internalNodes>
          <leafValues>
            -2.3327745497226715e-01 4.2768615484237671e-01</leafValues></_>
        <_>
          <internalNodes>
            0 -1 352 1.7524259164929390e-03</internalNodes>
          <leafValues>
            1.0113402456045151e-01 -7.6572281122207642e-01</leafValues></_>
        <_>
          <internalNodes>
            0 -1 479 -3.9846110157668591e-03</internalNodes>
          <leafValues>
            4.7366786003112793e-01 -1.8149328231811523e-01</leafValues></_>
        <_>
          <internalNodes>
            0 -1 410 8.9181214570999146e-03</internalNodes>
          <leafValues>
            -3.1583616137504578e-01 2.4746775627136230e-01</leafValues></_>
        <_>
          <internalNodes>
            0 -1 430 -1.6545969992876053e-03</internalNodes>
          <leafValues>
            4.8839664459228516e-01 -1.7182254791259766e-01</leafValues></_>
        <_>
          <internalNodes>
            0 -1 140 -6.3321545720100403e-02</internalNodes>
          <leafValues>
            -2.3672772943973541e-01 3.5139030218124390e-01</leafValues></_>
        <_>
          <internalNodes>
            0 -1 364 5.4265167564153671e-02</internalNodes>
          <leafValues>
            -3.4648454189300537e-01 2.2877743840217590e-01</leafValues></_>
        <_>
          <internalNodes>
            0 -1 328 -1.1584718525409698e-01</internalNodes>
          <leafValues>
            8.1790852546691895e-01 -1.4180958271026611e-01</leafValues></_>
        <_>
          <internalNodes>
            0 -1 84 -1.2076525017619133e-02</internalNodes>
          <leafValues>
            7.0098614692687988e-01 -8.4126174449920654e-02</leafValues></_>
        <_>
          <internalNodes>
            0 -1 495 -2.4912777007557452e-04</internalNodes>
          <leafValues>
            2.4071638286113739e-01 -3.3140823245048523e-01</leafValues></_></weakClassifiers></_>
    <!-- stage 10 -->
    <_>
      <maxWeakCount>17</maxWeakCount>
      <stageThreshold>-1.0296680927276611e+00</stageThreshold>
      <weakClassifiers>
        <_>
          <internalNodes>
            0 -1 609 -2.3279219865798950e-02</internalNodes>
          <leafValues>
            5.0000000000000000e-01 -1.9148936867713928e-01</leafValues></_>
        <_>
          <internalNodes>
            0 -1 51 -8.4236320108175278e-03</internalNodes>
          <leafValues>
            3.9672973752021790e-01 -2.4518060684204102e-01</leafValues></_>
        <_>
          <internalNodes>
            0 -1 167 -9.2493504285812378e-02</internalNodes>
          <leafValues>
            -6.3944792747497559e-01 1.6146455705165863e-01</leafValues></_>
        <_>
          <internalNodes>
            0 -1 259 -2.8856199234724045e-02</internalNodes>
          <leafValues>
            3.9076569676399231e-01 -2.6036366820335388e-01</leafValues></_>
        <_>
          <internalNodes>
            0 -1 582 6.1147972010076046e-03</internalNodes>
          <leafValues>
            -2.5055432319641113e-01 3.5903730988502502e-01</leafValues></_>
        <_>
          <internalNodes>
            0 -1 129 -1.8555775750428438e-03</internalNodes>
          <leafValues>
            6.7472481727600098e-01 -1.1891494691371918e-01</leafValues></_>
        <_>
          <internalNodes>
            0 -1 469 6.8078808486461639e-02</internalNodes>
          <leafValues>
            -3.0757105350494385e-01 2.9453921318054199e-01</leafValues></_>
        <_>
          <internalNodes>
            0 -1 263 1.2822025455534458e-03</internalNodes>
          <leafValues>
            -2.8016796708106995e-01 3.4220153093338013e-01</leafValues></_>
        <_>
          <internalNodes>
            0 -1 24 -1.2286680750548840e-02</internalNodes>
          <leafValues>
            -6.8670809268951416e-01 1.3373704254627228e-01</leafValues></_>
        <_>
          <internalNodes>
            0 -1 493 -1.9440886098891497e-03</internalNodes>
          <leafValues>
            -6.7281055450439453e-01 1.4715686440467834e-01</leafValues></_>
        <_>
          <internalNodes>
            0 -1 149 9.9621325731277466e-02</internalNodes>
          <leafValues>
            9.5930911600589752e-02 -7.1615213155746460e-01</leafValues></_>
        <_>
          <internalNodes>
            0 -1 275 -3.6888990551233292e-02</internalNodes>
          <leafValues>
            -6.7212831974029541e-01 9.1283634305000305e-02</leafValues></_>
        <_>
          <internalNodes>
            0 -1 225 7.5418298365548253e-04</internalNodes>
          <leafValues>
            -1.5797516703605652e-01 5.1677507162094116e-01</leafValues></_>
        <_>
          <internalNodes>
            0 -1 106 -1.6703153960406780e-03</internalNodes>
          <leafValues>
            4.6756330132484436e-01 -1.5105313062667847e-01</leafValues></_>
        <_>
          <internalNodes>
            0 -1 622 1.6908666584640741e-03</internalNodes>
          <leafValues>
            -1.3588832318782806e-01 5.1458042860031128e-01</leafValues></_>
        <_>
          <internalNodes>
            0 -1 169 -6.6941976547241211e-02</internalNodes>
          <leafValues>
            -3.1417721509933472e-01 2.4342580139636993e-01</leafValues></_>
        <_>
          <internalNodes>
            0 -1 511 -5.6703547015786171e-03</internalNodes>
          <leafValues>
            1.7536033689975739e-01 -4.0561866760253906e-01</leafValues></_></weakClassifiers></_>
    <!-- stage 11 -->
    <_>
      <maxWeakCount>14</maxWeakCount>
      <stageThreshold>-7.0403003692626953e-01</stageThreshold>
      <weakClassifiers>
        <_>
          <internalNodes>
            0 -1 579 7.1311574429273605e-03</internalNodes>
          <leafValues>
            -2.3243242502212524e-01 4.5789474248886108e-01</leafValues></_>
        <_>
          <internalNodes>
            0 -1 147 5.5984929203987122e-02</internalNodes>
          <leafValues>
            -2.9991987347602844e-01 3.0218058824539185e-01</leafValues></_>
        <_>
          <internalNodes>
            0 -1 108 4.3438505381345749e-03</internalNodes>
          <leafValues>
            -3.4243485331535339e-01 2.9889017343521118e-01</leafValues></_>
        <_>
          <internalNodes>
            0 -1 247 -9.9556939676403999e-04</internalNodes>
          <leafValues>
            -3.1947708129882813e-01 2.2879476845264435e-01</leafValues></_>
        <_>
          <internalNodes>
            0 -1 64 -1.9827899523079395e-03</internalNodes>
          <leafValues>
            5.2932482957839966e-01 -1.7342004179954529e-01</leafValues></_>
        <_>
          <internalNodes>
            0 -1 632 -1.2617912143468857e-02</internalNodes>
          <leafValues>
            5.6908392906188965e-01 -9.7705304622650146e-02</leafValues></_>
        <_>
          <internalNodes>
            0 -1 330 -1.4205980300903320e-01</internalNodes>
          <leafValues>
            -1.7710056900978088e-01 4.3028342723846436e-01</leafValues></_>
        <_>
          <internalNodes>
            0 -1 285 -9.1801770031452179e-04</internalNodes>
          <leafValues>
            2.5883075594902039e-01 -3.2720446586608887e-01</leafValues></_>
        <_>
          <internalNodes>
            0 -1 300 8.7678179144859314e-02</internalNodes>
          <leafValues>
            -3.7168887257575989e-01 2.4351532757282257e-01</leafValues></_>
        <_>
          <internalNodes>
            0 -1 98 4.3090200051665306e-03</internalNodes>
          <leafValues>
            -3.4349370002746582e-01 2.5757372379302979e-01</leafValues></_>
        <_>
          <internalNodes>
            0 -1 124 -1.0111227165907621e-03</internalNodes>
          <leafValues>
            3.8263630867004395e-01 -1.9247916340827942e-01</leafValues></_>
        <_>
          <internalNodes>
            0 -1 421 -1.7224142793565989e-03</internalNodes>
          <leafValues>
            -6.8574351072311401e-01 1.2816753983497620e-01</leafValues></_>
        <_>
          <internalNodes>
            0 -1 542 4.7155614010989666e-03</internalNodes>
          <leafValues>
            -2.0103579759597778e-01 4.3003875017166138e-01</leafValues></_>
        <_>
          <internalNodes>
            0 -1 420 4.1321213357150555e-03</internalNodes>
          <leafValues>
            1.3337849080562592e-01 -6.8636274337768555e-01</leafValues></_></weakClassifiers></_>
    <!-- stage 12 -->
    <_>
      <maxWeakCount>20</maxWeakCount>
      <stageThreshold>-8.8434916734695435e-01</stageThreshold>
      <weakClassifiers>
        <_>
          <internalNodes>
            0 -1 36 1.4954801648855209e-02</internalNodes>
          <leafValues>
            -3.4005036950111389e-01 3.3457249402999878e-01</leafValues></_>
        <_>
          <internalNodes>
            0 -1 405 -1.2064855545759201e-02</internalNodes>
          <leafValues>
            3.0598515272140503e-01 -3.0554154515266418e-01</leafValues></_>
        <_>
          <internalNodes>
            0 -1 548 3.9313603192567825e-03</internalNodes>
          <leafValues>
            -2.1270507574081421e-01 3.5822153091430664e-01</leafValues></_>
        <_>
          <internalNodes>
            0 -1 390 9.2922106385231018e-02</internalNodes>
          <leafValues>
            -3.9519840478897095e-01 1.8272987008094788e-01</leafValues></_>
        <_>
          <internalNodes>
            0 -1 21 8.1155798397958279e-04</internalNodes>
          <leafValues>
            -1.9289262592792511e-01 4.7391894459724426e-01</leafValues></_>
        <_>
          <internalNodes>
            0 -1 536 -4.8552183434367180e-03</internalNodes>
          <leafValues>
            -7.8392881155014038e-01 1.1042524129152298e-01</leafValues></_>
        <_>
          <internalNodes>
            0 -1 337 -2.5461729615926743e-02</internalNodes>
          <leafValues>
            -5.1244544982910156e-01 1.2531805038452148e-01</leafValues></_>
        <_>
          <internalNodes>
            0 -1 23 1.1146761476993561e-02</internalNodes>
          <leafValues>
            -1.2949419021606445e-01 5.7893794775009155e-01</leafValues></_>
        <_>
          <internalNodes>
            0 -1 125 -2.8561141341924667e-02</internalNodes>
          <leafValues>
            5.4077625274658203e-01 -1.4098219573497772e-01</leafValues></_>
        <_>
          <internalNodes>
            0 -1 616 -3.6247964017093182e-03</internalNodes>
          <leafValues>
            3.7520939111709595e-01 -1.7408956587314606e-01</leafValues></_>
        <_>
          <internalNodes>
            0 -1 580 -3.1287614256143570e-03</internalNodes>
          <leafValues>
            6.3061285018920898e-01 -1.2471931427717209e-01</leafValues></_>
        <_>
          <internalNodes>
            0 -1 63 1.7766945529729128e-03</internalNodes>
          <leafValues>
            -1.3438276946544647e-01 4.5949977636337280e-01</leafValues></_>
        <_>
          <internalNodes>
            0 -1 76 -8.2973239477723837e-04</internalNodes>
          <leafValues>
            5.8572399616241455e-01 -1.2576153874397278e-01</leafValues></_>
        <_>
          <internalNodes>
            0 -1 581 4.4153961353003979e-03</internalNodes>
          <leafValues>
            -1.4417992532253265e-01 4.7276744246482849e-01</leafValues></_>
        <_>
          <internalNodes>
            0 -1 219 2.0736379548907280e-02</internalNodes>
          <leafValues>
            9.7374632954597473e-02 -9.7527939081192017e-01</leafValues></_>
        <_>
          <internalNodes>
            0 -1 246 2.3579798289574683e-04</internalNodes>
          <leafValues>
            -3.1206557154655457e-01 2.2872179746627808e-01</leafValues></_>
        <_>
          <internalNodes>
            0 -1 350 -3.5687151830643415e-04</internalNodes>
          <leafValues>
            1.7449726164340973e-01 -5.0940120220184326e-01</leafValues></_>
        <_>
          <internalNodes>
            0 -1 531 -5.7793851941823959e-02</internalNodes>
          <leafValues>
            8.5734987258911133e-01 -1.1023820191621780e-01</leafValues></_>
        <_>
          <internalNodes>
            0 -1 212 -1.2468837201595306e-01</internalNodes>
          <leafValues>
            4.9892345070838928e-01 -1.0912317782640457e-01</leafValues></_>
        <_>
          <internalNodes>
            0 -1 294 -1.1432627215981483e-03</internalNodes>
          <leafValues>
            4.0388512611389160e-01 -1.4234226942062378e-01</leafValues></_></weakClassifiers></_>
    <!-- stage 13 -->
    <_>
      <maxWeakCount>19</maxWeakCount>
      <stageThreshold>-7.3297834396362305e-01</stageThreshold>
      <weakClassifiers>
        <_>
          <internalNodes>
            0 -1 221 -4.7176353633403778e-02</internalNodes>
          <leafValues>
            3.1194296479225159e-01 -3.4759357571601868e-01</leafValues></_>
        <_>
          <internalNodes>
            0 -1 40 -8.5515147075057030e-03</internalNodes>
          <leafValues>
            2.8580811619758606e-01 -2.6191073656082153e-01</leafValues></_>
        <_>
          <internalNodes>
            0 -1 367 -3.2939398661255836e-03</internalNodes>
          <leafValues>
            9.8513662815093994e-02 -7.2838824987411499e-01</leafValues></_>
        <_>
          <internalNodes>
            0 -1 362 1.0102958418428898e-02</internalNodes>
          <leafValues>
            -2.1645291149616241e-01 3.2380095124244690e-01</leafValues></_>
        <_>
          <internalNodes>
            0 -1 474 -2.5464006466791034e-04</internalNodes>
          <leafValues>
            1.2242656946182251e-01 -4.5136731863021851e-01</leafValues></_>
        <_>
          <internalNodes>
            0 -1 540 -1.4172076480463147e-03</internalNodes>
          <leafValues>
            3.2533937692642212e-01 -2.0517373085021973e-01</leafValues></_>
        <_>
          <internalNodes>
            0 -1 563 -3.7092918064445257e-03</internalNodes>
          <leafValues>
            -4.0880537033081055e-01 1.6091398894786835e-01</leafValues></_>
        <_>
          <internalNodes>
            0 -1 592 4.9006533809006214e-03</internalNodes>
          <leafValues>
            -1.2585705518722534e-01 5.3788930177688599e-01</leafValues></_>
        <_>
          <internalNodes>
            0 -1 567 6.9459285587072372e-03</internalNodes>
          <leafValues>
            -2.1460902690887451e-01 3.2890799641609192e-01</leafValues></_>
        <_>
          <internalNodes>
            0 -1 500 2.0058313384652138e-03</internalNodes>
          <leafValues>
            8.7638124823570251e-02 -7.3658215999603271e-01</leafValues></_>
        <_>
          <internalNodes>
            0 -1 101 1.7106134444475174e-02</internalNodes>
          <leafValues>
            -2.0929925143718719e-01 3.0422681570053101e-01</leafValues></_>
        <_>
          <internalNodes>
            0 -1 578 7.7472226694226265e-03</internalNodes>
          <leafValues>
            -8.7323263287544250e-02 6.0695344209671021e-01</leafValues></_>
        <_>
          <internalNodes>
            0 -1 231 -6.8313195370137691e-03</internalNodes>
          <leafValues>
            -7.2017067670822144e-01 8.7507851421833038e-02</leafValues></_>
        <_>
          <internalNodes>
            0 -1 552 -5.6150543969124556e-04</internalNodes>
          <leafValues>
            2.2973933815956116e-01 -2.6319113373756409e-01</leafValues></_>
        <_>
          <internalNodes>
            0 -1 547 -8.0955112352967262e-03</internalNodes>
          <leafValues>
            -8.1656783819198608e-01 7.4064046144485474e-02</leafValues></_>
        <_>
          <internalNodes>
            0 -1 481 -2.2401707246899605e-03</internalNodes>
          <leafValues>
            3.6456635594367981e-01 -1.8534974753856659e-01</leafValues></_>
        <_>
          <internalNodes>
            0 -1 490 -3.3250136766582727e-03</internalNodes>
          <leafValues>
            7.0752687752246857e-02 -8.7684911489486694e-01</leafValues></_>
        <_>
          <internalNodes>
            0 -1 280 -3.2525449991226196e-01</internalNodes>
          <leafValues>
            -2.7398058772087097e-01 2.3808386921882629e-01</leafValues></_>
        <_>
          <internalNodes>
            0 -1 402 -1.5791304176673293e-03</internalNodes>
          <leafValues>
            -9.4612550735473633e-01 6.3527807593345642e-02</leafValues></_></weakClassifiers></_>
    <!-- stage 14 -->
    <_>
      <maxWeakCount>26</maxWeakCount>
      <stageThreshold>-9.4246804714202881e-01</stageThreshold>
      <weakClassifiers>
        <_>
          <internalNodes>
            0 -1 604 -2.9660582542419434e-02</internalNodes>
          <leafValues>
            4.0206184983253479e-01 -2.0292504131793976e-01</leafValues></_>
        <_>
          <internalNodes>
            0 -1 268 6.2741011381149292e-02</internalNodes>
          <leafValues>
            -3.6090829968452454e-01 2.2786523401737213e-01</leafValues></_>
        <_>
          <internalNodes>
            0 -1 533 -7.4812648817896843e-03</internalNodes>
          <leafValues>
            -6.6365814208984375e-01 9.2071942985057831e-02</leafValues></_>
        <_>
          <internalNodes>
            0 -1 35 2.3471252992749214e-02</internalNodes>
          <leafValues>
            -2.5441497564315796e-01 3.1616887450218201e-01</leafValues></_>
        <_>
          <internalNodes>
            0 -1 359 -8.6295913206413388e-04</internalNodes>
          <leafValues>
            -5.1104205846786499e-01 9.5969870686531067e-02</leafValues></_>
        <_>
          <internalNodes>
            0 -1 312 -3.5637412220239639e-03</internalNodes>
          <leafValues>
            3.2995763421058655e-01 -1.5988957881927490e-01</leafValues></_>
        <_>
          <internalNodes>
            0 -1 403 -4.8513969522900879e-04</internalNodes>
          <leafValues>
            1.0551246255636215e-01 -4.9501502513885498e-01</leafValues></_>
        <_>
          <internalNodes>
            0 -1 427 -2.1799143403768539e-02</internalNodes>
          <leafValues>
            -5.2523821592330933e-01 9.9055238068103790e-02</leafValues></_>
        <_>
          <internalNodes>
            0 -1 315 2.2164521738886833e-02</internalNodes>
          <leafValues>
            1.0622296482324600e-01 -5.2823603153228760e-01</leafValues></_>
        <_>
          <internalNodes>
            0 -1 128 1.1268968228250742e-03</internalNodes>
          <leafValues>
            -1.4327774941921234e-01 5.0696158409118652e-01</leafValues></_>
        <_>
          <internalNodes>
            0 -1 50 2.7714546769857407e-02</internalNodes>
          <leafValues>
            -1.3629195094108582e-01 3.6503881216049194e-01</leafValues></_>
        <_>
          <internalNodes>
            0 -1 37 5.9908250113949180e-04</internalNodes>
          <leafValues>
            -3.6267682909965515e-01 1.4116945862770081e-01</leafValues></_>
        <_>
          <internalNodes>
            0 -1 422 -3.6410237953532487e-05</internalNodes>
          <leafValues>
            1.2281272560358047e-01 -4.5131114125251770e-01</leafValues></_>
        <_>
          <internalNodes>
            0 -1 316 -1.4229138195514679e-01</internalNodes>
          <leafValues>
            -8.2155638933181763e-01 5.2479837089776993e-02</leafValues></_>
        <_>
          <internalNodes>
            0 -1 385 -1.0298823472112417e-03</internalNodes>
          <leafValues>
            -5.5220448970794678e-01 8.3003394305706024e-02</leafValues></_>
        <_>
          <internalNodes>
            0 -1 90 -3.7283620331436396e-03</internalNodes>
          <leafValues>
            6.1244529485702515e-01 -8.9128375053405762e-02</leafValues></_>
        <_>
          <internalNodes>
            0 -1 121 -1.0687308385968208e-03</internalNodes>
          <leafValues>
            4.5603302121162415e-01 -1.1107917875051498e-01</leafValues></_>
        <_>
          <internalNodes>
            0 -1 239 4.4625713489949703e-03</internalNodes>
          <leafValues>
            7.5885616242885590e-02 -7.0070916414260864e-01</leafValues></_>
        <_>
          <internalNodes>
            0 -1 22 6.0939397662878036e-03</internalNodes>
          <leafValues>
            -1.1417978256940842e-01 4.7512394189834595e-01</leafValues></_>
        <_>
          <internalNodes>
            0 -1 253 -9.9743413738906384e-04</internalNodes>
          <leafValues>
            -5.3999239206314087e-01 9.1016709804534912e-02</leafValues></_>
        <_>
          <internalNodes>
            0 -1 155 -2.5578748434782028e-02</internalNodes>
          <leafValues>
            8.7421667575836182e-01 -7.2194561362266541e-02</leafValues></_>
        <_>
          <internalNodes>
            0 -1 488 2.4458423256874084e-02</internalNodes>
          <leafValues>
            -3.8145902752876282e-01 1.6491402685642242e-01</leafValues></_>
        <_>
          <internalNodes>
            0 -1 341 -6.4799597021192312e-04</internalNodes>
          <leafValues>
            4.1645461320877075e-01 -1.7358142137527466e-01</leafValues></_>
        <_>
          <internalNodes>
            0 -1 526 -6.8684211000800133e-03</internalNodes>
          <leafValues>
            -5.8192861080169678e-01 1.0695885121822357e-01</leafValues></_>
        <_>
          <internalNodes>
            0 -1 208 4.5488280011340976e-04</internalNodes>
          <leafValues>
            -1.5432301163673401e-01 3.5049489140510559e-01</leafValues></_>
        <_>
          <internalNodes>
            0 -1 643 -2.9857982881367207e-03</internalNodes>
          <leafValues>
            5.2900820970535278e-01 -1.0289447009563446e-01</leafValues></_></weakClassifiers></_>
    <!-- stage 15 -->
    <_>
      <maxWeakCount>23</maxWeakCount>
      <stageThreshold>-8.2547098398208618e-01</stageThreshold>
      <weakClassifiers>
        <_>
          <internalNodes>
            0 -1 134 1.1363112367689610e-02</internalNodes>
          <leafValues>
            -1.4150942862033844e-01 4.5150500535964966e-01</leafValues></_>
        <_>
          <internalNodes>
            0 -1 406 -1.7212176695466042e-02</internalNodes>
          <leafValues>
            2.2481484711170197e-01 -2.9649925231933594e-01</leafValues></_>
        <_>
          <internalNodes>
            0 -1 269 -2.4720663204789162e-02</internalNodes>
          <leafValues>
            -8.5784143209457397e-01 8.3454705774784088e-02</leafValues></_>
        <_>
          <internalNodes>
            0 -1 618 -4.7565628774464130e-03</internalNodes>
          <leafValues>
            4.2025318741798401e-01 -1.3838958740234375e-01</leafValues></_>
        <_>
          <internalNodes>
            0 -1 171 -1.3748136162757874e-01</internalNodes>
          <leafValues>
            -1.9415128231048584e-01 3.4672862291336060e-01</leafValues></_>
        <_>
          <internalNodes>
            0 -1 0 9.2805607710033655e-04</internalNodes>
          <leafValues>
            -1.6023798286914825e-01 4.8552888631820679e-01</leafValues></_>
        <_>
          <internalNodes>
            0 -1 180 -1.8405111040920019e-03</internalNodes>
          <leafValues>
            6.6274845600128174e-01 -1.0237266868352890e-01</leafValues></_>
        <_>
          <internalNodes>
            0 -1 284 -3.4736504312604666e-03</internalNodes>
          <leafValues>
            3.8127964735031128e-01 -1.6330981254577637e-01</leafValues></_>
        <_>
          <internalNodes>
            0 -1 115 1.1876248568296432e-01</internalNodes>
          <leafValues>
            -4.2264631390571594e-01 1.6205936670303345e-01</leafValues></_>
        <_>
          <internalNodes>
            0 -1 165 -1.1512367054820061e-02</internalNodes>
          <leafValues>
            5.0728636980056763e-01 -1.2872081995010376e-01</leafValues></_>
        <_>
          <internalNodes>
            0 -1 276 -9.4207145273685455e-02</internalNodes>
          <leafValues>
            -7.9550296068191528e-01 7.6394602656364441e-02</leafValues></_>
        <_>
          <internalNodes>
            0 -1 279 -2.9908519983291626e-01</internalNodes>
          <leafValues>
            -2.2430977225303650e-01 2.3478619754314423e-01</leafValues></_>
        <_>
          <internalNodes>
            0 -1 127 1.6733050346374512e-02</internalNodes>
          <leafValues>
            -1.8386763334274292e-01 3.6831858754158020e-01</leafValues></_>
        <_>
          <internalNodes>
            0 -1 438 -4.2994488030672073e-03</internalNodes>
          <leafValues>
            1.0477465391159058e-01 -5.7996785640716553e-01</leafValues></_>
        <_>
          <internalNodes>
            0 -1 588 5.8538920711725950e-04</internalNodes>
          <leafValues>
            -2.4683637917041779e-01 2.6463416218757629e-01</leafValues></_>
        <_>
          <internalNodes>
            0 -1 27 -1.0366806760430336e-02</internalNodes>
          <leafValues>
            3.3169463276863098e-01 -1.5855517983436584e-01</leafValues></_>
        <_>
          <internalNodes>
            0 -1 356 -5.7500833645462990e-03</internalNodes>
          <leafValues>
            2.7279800176620483e-01 -2.0105823874473572e-01</leafValues></_>
        <_>
          <internalNodes>
            0 -1 478 4.8795290058478713e-04</internalNodes>
          <leafValues>
            8.4715738892555237e-02 -6.6445028781890869e-01</leafValues></_>
        <_>
          <internalNodes>
            0 -1 454 -5.2315857261419296e-02</internalNodes>
          <leafValues>
            -3.4223118424415588e-01 1.4255091547966003e-01</leafValues></_>
        <_>
          <internalNodes>
            0 -1 553 1.7601910978555679e-02</internalNodes>
          <leafValues>
            -2.0989884436130524e-01 2.3771484196186066e-01</leafValues></_>
        <_>
          <internalNodes>
            0 -1 110 1.0594565421342850e-01</internalNodes>
          <leafValues>
            1.0653223097324371e-01 -5.3390318155288696e-01</leafValues></_>
        <_>
          <internalNodes>
            0 -1 112 -1.9311992218717933e-03</internalNodes>
          <leafValues>
            3.5681188106536865e-01 -1.3945108652114868e-01</leafValues></_>
        <_>
          <internalNodes>
            0 -1 107 5.0611849874258041e-03</internalNodes>
          <leafValues>
            -1.1391386389732361e-01 6.0650372505187988e-01</leafValues></_></weakClassifiers></_>
    <!-- stage 16 -->
    <_>
      <maxWeakCount>20</maxWeakCount>
      <stageThreshold>-1.0274665355682373e+00</stageThreshold>
      <weakClassifiers>
        <_>
          <internalNodes>
            0 -1 603 -2.6448829099535942e-02</internalNodes>
          <leafValues>
            4.0000000596046448e-01 -2.3883494734764099e-01</leafValues></_>
        <_>
          <internalNodes>
            0 -1 32 8.0970060080289841e-03</internalNodes>
          <leafValues>
            -1.8379104137420654e-01 4.7678458690643311e-01</leafValues></_>
        <_>
          <internalNodes>
            0 -1 507 2.5928106624633074e-03</internalNodes>
          <leafValues>
            -1.8644827604293823e-01 3.9830461144447327e-01</leafValues></_>
        <_>
          <internalNodes>
            0 -1 611 7.3236650787293911e-03</internalNodes>
          <leafValues>
            -1.5279275178909302e-01 5.1329159736633301e-01</leafValues></_>
        <_>
          <internalNodes>
            0 -1 92 4.2014904320240021e-03</internalNodes>
          <leafValues>
            -1.3661836087703705e-01 5.1144462823867798e-01</leafValues></_>
        <_>
          <internalNodes>
            0 -1 251 8.5908845067024231e-03</internalNodes>
          <leafValues>
            1.0120408236980438e-01 -8.5809224843978882e-01</leafValues></_>
        <_>
          <internalNodes>
            0 -1 290 -3.1117378966882825e-04</internalNodes>
          <leafValues>
            -4.6073007583618164e-01 1.3433374464511871e-01</leafValues></_>
        <_>
          <internalNodes>
            0 -1 322 -1.1398397386074066e-02</internalNodes>
          <leafValues>
            -4.2015117406845093e-01 1.4348064363002777e-01</leafValues></_>
        <_>
          <internalNodes>
            0 -1 102 -1.0475523769855499e-02</internalNodes>
          <leafValues>
            3.8263091444969177e-01 -1.9594225287437439e-01</leafValues></_>
        <_>
          <internalNodes>
            0 -1 62 1.8351273611187935e-03</internalNodes>
          <leafValues>
            -4.2398884892463684e-01 2.0150242745876312e-01</leafValues></_>
        <_>
          <internalNodes>
            0 -1 641 5.8675985783338547e-03</internalNodes>
          <leafValues>
            -1.8662670254707336e-01 4.2073413729667664e-01</leafValues></_>
        <_>
          <internalNodes>
            0 -1 388 -7.8092934563755989e-04</internalNodes>
          <leafValues>
            -8.1615787744522095e-01 1.1199326068162918e-01</leafValues></_>
        <_>
          <internalNodes>
            0 -1 573 -2.9830588027834892e-04</internalNodes>
          <leafValues>
            2.7862209081649780e-01 -2.3692452907562256e-01</leafValues></_>
        <_>
          <internalNodes>
            0 -1 144 -1.2361113727092743e-01</internalNodes>
          <leafValues>
            -1.1151354759931564e-01 6.2106543779373169e-01</leafValues></_>
        <_>
          <internalNodes>
            0 -1 512 -7.1228090673685074e-03</internalNodes>
          <leafValues>
            1.5740759670734406e-01 -5.2750742435455322e-01</leafValues></_>
        <_>
          <internalNodes>
            0 -1 380 4.6166740357875824e-03</internalNodes>
          <leafValues>
            -2.0511755347251892e-01 2.8636938333511353e-01</leafValues></_>
        <_>
          <internalNodes>
            0 -1 486 8.8761135702952743e-04</internalNodes>
          <leafValues>
            9.6470728516578674e-02 -7.9820466041564941e-01</leafValues></_>
        <_>
          <internalNodes>
            0 -1 575 -6.9528948515653610e-03</internalNodes>
          <leafValues>
            3.6393630504608154e-01 -1.7255285382270813e-01</leafValues></_>
        <_>
          <internalNodes>
            0 -1 577 5.3233224898576736e-03</internalNodes>
          <leafValues>
            -1.2402036041021347e-01 4.5091533660888672e-01</leafValues></_>
        <_>
          <internalNodes>
            0 -1 448 1.5121187316253781e-03</internalNodes>
          <leafValues>
            7.2892948985099792e-02 -8.7522023916244507e-01</leafValues></_></weakClassifiers></_>
    <!-- stage 17 -->
    <_>
      <maxWeakCount>22</maxWeakCount>
      <stageThreshold>-7.9678654670715332e-01</stageThreshold>
      <weakClassifiers>
        <_>
          <internalNodes>
            0 -1 192 -5.6600064039230347e-02</internalNodes>
          <leafValues>
            2.9824560880661011e-01 -2.5592416524887085e-01</leafValues></_>
        <_>
          <internalNodes>
            0 -1 407 3.1971810385584831e-03</internalNodes>
          <leafValues>
            -2.1227346360683441e-01 3.1896394491195679e-01</leafValues></_>
        <_>
          <internalNodes>
            0 -1 412 1.4400741457939148e-01</internalNodes>
          <leafValues>
            -2.2795520722866058e-01 2.5000825524330139e-01</leafValues></_>
        <_>
          <internalNodes>
            0 -1 34 -2.1464178338646889e-02</internalNodes>
          <leafValues>
            3.1678625941276550e-01 -2.0577849447727203e-01</leafValues></_>
        <_>
          <internalNodes>
            0 -1 348 2.5874851271510124e-03</internalNodes>
          <leafValues>
            1.3691334426403046e-01 -7.9802274703979492e-01</leafValues></_>
        <_>
          <internalNodes>
            0 -1 222 4.3553542345762253e-03</internalNodes>
          <leafValues>
            -1.2879645824432373e-01 6.3851529359817505e-01</leafValues></_>
        <_>
          <internalNodes>
            0 -1 226 -3.9715180173516273e-03</internalNodes>
          <leafValues>
            2.9071468114852905e-01 -1.7603214085102081e-01</leafValues></_>
        <_>
          <internalNodes>
            0 -1 498 -2.2817032877355814e-03</internalNodes>
          <leafValues>
            2.0689819753170013e-01 -2.5429707765579224e-01</leafValues></_>
        <_>
          <internalNodes>
            0 -1 182 -5.9673212468624115e-02</internalNodes>
          <leafValues>
            -6.1051374673843384e-01 6.0332234948873520e-02</leafValues></_>
        <_>
          <internalNodes>
            0 -1 130 7.7994000166654587e-03</internalNodes>
          <leafValues>
            -1.2564897537231445e-01 4.2195114493370056e-01</leafValues></_>
        <_>
          <internalNodes>
            0 -1 565 -2.0529268309473991e-02</internalNodes>
          <leafValues>
            -1.8807306885719299e-01 3.0596032738685608e-01</leafValues></_>
        <_>
          <internalNodes>
            0 -1 344 8.7166428565979004e-03</internalNodes>
          <leafValues>
            -1.9970633089542389e-01 3.0319437384605408e-01</leafValues></_>
        <_>
          <internalNodes>
            0 -1 569 1.3612422626465559e-03</internalNodes>
          <leafValues>
            -1.9749858975410461e-01 2.9073527455329895e-01</leafValues></_>
        <_>
          <internalNodes>
            0 -1 625 3.6402391269803047e-03</internalNodes>
          <leafValues>
            -1.2797483801841736e-01 4.2791816592216492e-01</leafValues></_>
        <_>
          <internalNodes>
            0 -1 95 -9.2388704419136047e-02</internalNodes>
          <leafValues>
            -5.6402629613876343e-01 7.8724548220634460e-02</leafValues></_>
        <_>
          <internalNodes>
            0 -1 626 -1.9304286688566208e-03</internalNodes>
          <leafValues>
            4.6260225772857666e-01 -1.0842097550630569e-01</leafValues></_>
        <_>
          <internalNodes>
            0 -1 389 1.2324249837547541e-03</internalNodes>
          <leafValues>
            9.2761270701885223e-02 -6.1020904779434204e-01</leafValues></_>
        <_>
          <internalNodes>
            0 -1 371 1.1855134507641196e-03</internalNodes>
          <leafValues>
            -1.9595269858837128e-01 2.9412731528282166e-01</leafValues></_>
        <_>
          <internalNodes>
            0 -1 522 -1.5456479042768478e-02</internalNodes>
          <leafValues>
            -7.8760772943496704e-02 6.2374556064605713e-01</leafValues></_>
        <_>
          <internalNodes>
            0 -1 372 4.6087570488452911e-02</internalNodes>
          <leafValues>
            -1.9889748096466064e-01 3.3176192641258240e-01</leafValues></_>
        <_>
          <internalNodes>
            0 -1 177 1.1862544342875481e-03</internalNodes>
          <leafValues>
            -3.5582548379898071e-01 1.9619636237621307e-01</leafValues></_>
        <_>
          <internalNodes>
            0 -1 143 4.0207797288894653e-01</internalNodes>
          <leafValues>
            8.7084352970123291e-02 -6.0477304458618164e-01</leafValues></_></weakClassifiers></_>
    <!-- stage 18 -->
    <_>
      <maxWeakCount>24</maxWeakCount>
      <stageThreshold>-7.2109019756317139e-01</stageThreshold>
      <weakClassifiers>
        <_>
          <internalNodes>
            0 -1 133 1.5615398064255714e-02</internalNodes>
          <leafValues>
            -1.8410041928291321e-01 2.9102843999862671e-01</leafValues></_>
        <_>
          <internalNodes>
            0 -1 119 2.0350631326436996e-02</internalNodes>
          <leafValues>
            -1.3705337047576904e-01 4.0750896930694580e-01</leafValues></_>
        <_>
          <internalNodes>
            0 -1 139 5.4446505382657051e-03</internalNodes>
          <leafValues>
            -3.9511433243751526e-01 1.5248019993305206e-01</leafValues></_>
        <_>
          <internalNodes>
            0 -1 238 1.0116498172283173e-01</internalNodes>
          <leafValues>
            -1.4081393182277679e-01 5.4431170225143433e-01</leafValues></_>
        <_>
          <internalNodes>
            0 -1 447 -1.1357822222635150e-04</internalNodes>
          <leafValues>
            2.3268820345401764e-01 -2.7424943447113037e-01</leafValues></_>
        <_>
          <internalNodes>
            0 -1 518 -7.0072710514068604e-04</internalNodes>
          <leafValues>
            -4.1545411944389343e-01 8.8061958551406860e-02</leafValues></_>
        <_>
          <internalNodes>
            0 -1 82 -1.1145606637001038e-02</internalNodes>
          <leafValues>
            5.7550662755966187e-01 -7.9132951796054840e-02</leafValues></_>
        <_>
          <internalNodes>
            0 -1 482 9.0626189485192299e-03</internalNodes>
          <leafValues>
            -1.6317583620548248e-01 2.9639145731925964e-01</leafValues></_>
        <_>
          <internalNodes>
            0 -1 313 -4.5036263763904572e-03</internalNodes>
          <leafValues>
            -1.5471675992012024e-01 4.1558447480201721e-01</leafValues></_>
        <_>
          <internalNodes>
            0 -1 585 2.4331960827112198e-02</internalNodes>
          <leafValues>
            -3.0158320069313049e-01 2.0637732744216919e-01</leafValues></_>
        <_>
          <internalNodes>
            0 -1 376 3.7851650267839432e-03</internalNodes>
          <leafValues>
            5.8912239968776703e-02 -9.6303254365921021e-01</leafValues></_>
        <_>
          <internalNodes>
            0 -1 94 2.6798942126333714e-03</internalNodes>
          <leafValues>
            -2.5134003162384033e-01 1.8410916626453400e-01</leafValues></_>
        <_>
          <internalNodes>
            0 -1 377 -3.4344516461715102e-04</internalNodes>
          <leafValues>
            -3.6668321490287781e-01 1.2101601064205170e-01</leafValues></_>
        <_>
          <internalNodes>
            0 -1 267 -1.2184942606836557e-03</internalNodes>
          <leafValues>
            3.1716766953468323e-01 -1.5233877301216125e-01</leafValues></_>
        <_>
          <internalNodes>
            0 -1 122 5.3935428149998188e-03</internalNodes>
          <leafValues>
            -8.9611075818538666e-02 6.0519272089004517e-01</leafValues></_>
        <_>
          <internalNodes>
            0 -1 187 -1.4405134320259094e-01</internalNodes>
          <leafValues>
            6.0708296298980713e-01 -8.9844316244125366e-02</leafValues></_>
        <_>
          <internalNodes>
            0 -1 520 -2.1245221432764083e-05</internalNodes>
          <leafValues>
            1.2460115551948547e-01 -4.4256708025932312e-01</leafValues></_>
        <_>
          <internalNodes>
            0 -1 270 -3.6729775369167328e-02</internalNodes>
          <leafValues>
            -6.7532074451446533e-01 7.3726817965507507e-02</leafValues></_>
        <_>
          <internalNodes>
            0 -1 261 -7.4558681808412075e-04</internalNodes>
          <leafValues>
            5.4171723127365112e-01 -1.0285501182079315e-01</leafValues></_>
        <_>
          <internalNodes>
            0 -1 571 2.6025525294244289e-03</internalNodes>
          <leafValues>
            -1.0321013629436493e-01 4.9001792073249817e-01</leafValues></_>
        <_>
          <internalNodes>
            0 -1 455 -3.3628655364736915e-04</internalNodes>
          <leafValues>
            1.6020640730857849e-01 -3.3588233590126038e-01</leafValues></_>
        <_>
          <internalNodes>
            0 -1 562 3.2881898805499077e-03</internalNodes>
          <leafValues>
            -1.0166029632091522e-01 5.2250850200653076e-01</leafValues></_>
        <_>
          <internalNodes>
            0 -1 293 5.3842486813664436e-03</internalNodes>
          <leafValues>
            8.7840937077999115e-02 -6.7008787393569946e-01</leafValues></_>
        <_>
          <internalNodes>
            0 -1 45 7.9111643135547638e-03</internalNodes>
          <leafValues>
            -1.3352070748806000e-01 4.4949448108673096e-01</leafValues></_></weakClassifiers></_>
    <!-- stage 19 -->
    <_>
      <maxWeakCount>25</maxWeakCount>
      <stageThreshold>-7.3088592290878296e-01</stageThreshold>
      <weakClassifiers>
        <_>
          <internalNodes>
            0 -1 439 4.6952581033110619e-03</internalNodes>
          <leafValues>
            -1.0975609719753265e-01 4.1935482621192932e-01</leafValues></_>
        <_>
          <internalNodes>
            0 -1 248 1.1568170040845871e-02</internalNodes>
          <leafValues>
            -1.1429499089717865e-01 4.5017921924591064e-01</leafValues></_>
        <_>
          <internalNodes>
            0 -1 365 8.3600401878356934e-02</internalNodes>
          <leafValues>
            -1.3143511116504669e-01 4.3420675396919250e-01</leafValues></_>
        <_>
          <internalNodes>
            0 -1 86 -6.9809649139642715e-03</internalNodes>
          <leafValues>
            -1.0049537569284439e-01 5.9127265214920044e-01</leafValues></_>
        <_>
          <internalNodes>
            0 -1 527 -2.1354411728680134e-03</internalNodes>
          <leafValues>
            3.5615977644920349e-01 -1.7233768105506897e-01</leafValues></_>
        <_>
          <internalNodes>
            0 -1 260 -1.4538457617163658e-03</internalNodes>
          <leafValues>
            3.1578752398490906e-01 -1.5572573244571686e-01</leafValues></_>
        <_>
          <internalNodes>
            0 -1 634 -1.0951248696073890e-03</internalNodes>
          <leafValues>
            4.6455165743827820e-01 -1.0312465578317642e-01</leafValues></_>
        <_>
          <internalNodes>
            0 -1 501 1.6883746720850468e-03</internalNodes>
          <leafValues>
            9.5520757138729095e-02 -6.5650171041488647e-01</leafValues></_>
        <_>
          <internalNodes>
            0 -1 383 2.6444727554917336e-03</internalNodes>
          <leafValues>
            -2.0958654582500458e-01 2.5866323709487915e-01</leafValues></_>
        <_>
          <internalNodes>
            0 -1 460 -6.5992474555969238e-03</internalNodes>
          <leafValues>
            -3.1893730163574219e-01 1.7820613086223602e-01</leafValues></_>
        <_>
          <internalNodes>
            0 -1 201 3.1876452267169952e-02</internalNodes>
          <leafValues>
            1.1438339948654175e-01 -5.7959890365600586e-01</leafValues></_>
        <_>
          <internalNodes>
            0 -1 593 -3.9623372140340507e-04</internalNodes>
          <leafValues>
            4.3523710966110229e-01 -1.3633368909358978e-01</leafValues></_>
        <_>
          <internalNodes>
            0 -1 137 -1.2408704496920109e-02</internalNodes>
          <leafValues>
            3.6432039737701416e-01 -1.4276981353759766e-01</leafValues></_>
        <_>
          <internalNodes>
            0 -1 325 1.4540683478116989e-03</internalNodes>
          <leafValues>
            -2.2884571552276611e-01 2.2485499083995819e-01</leafValues></_>
        <_>
          <internalNodes>
            0 -1 78 2.3111398331820965e-03</internalNodes>
          <leafValues>
            -4.8678763210773468e-02 8.2131117582321167e-01</leafValues></_>
        <_>
          <internalNodes>
            0 -1 646 1.0631288168951869e-03</internalNodes>
          <leafValues>
            -1.2630991637706757e-01 3.5892060399055481e-01</leafValues></_>
        <_>
          <internalNodes>
            0 -1 475 -3.4745015203952789e-02</internalNodes>
          <leafValues>
            -5.8819614350795746e-02 7.6070165634155273e-01</leafValues></_>
        <_>
          <internalNodes>
            0 -1 465 3.4877207130193710e-02</internalNodes>
          <leafValues>
            -4.8482906818389893e-01 1.4902935922145844e-01</leafValues></_>
        <_>
          <internalNodes>
            0 -1 190 -3.1804643571376801e-02</internalNodes>
          <leafValues>
            -7.7361541986465454e-01 6.0459919273853302e-02</leafValues></_>
        <_>
          <internalNodes>
            0 -1 326 1.6270626801997423e-03</internalNodes>
          <leafValues>
            -1.7925934493541718e-01 2.9348626732826233e-01</leafValues></_>
        <_>
          <internalNodes>
            0 -1 186 2.3452468216419220e-02</internalNodes>
          <leafValues>
            -7.4864611029624939e-02 6.2540525197982788e-01</leafValues></_>
        <_>
          <internalNodes>
            0 -1 515 -6.0001169331371784e-03</internalNodes>
          <leafValues>
            7.3260098695755005e-01 -6.6831439733505249e-02</leafValues></_>
        <_>
          <internalNodes>
            0 -1 485 -3.1192260794341564e-03</internalNodes>
          <leafValues>
            -9.3941980600357056e-01 6.6146984696388245e-02</leafValues></_>
        <_>
          <internalNodes>
            0 -1 554 -1.2021658476442099e-03</internalNodes>
          <leafValues>
            4.0228402614593506e-01 -1.3197331130504608e-01</leafValues></_>
        <_>
          <internalNodes>
            0 -1 574 -4.1580107063055038e-04</internalNodes>
          <leafValues>
            -3.5366857051849365e-01 1.3708078861236572e-01</leafValues></_></weakClassifiers></_>
    <!-- stage 20 -->
    <_>
      <maxWeakCount>23</maxWeakCount>
      <stageThreshold>-6.7978060245513916e-01</stageThreshold>
      <weakClassifiers>
        <_>
          <internalNodes>
            0 -1 568 -7.3467837646603584e-03</internalNodes>
          <leafValues>
            2.0312500000000000e-01 -2.8813558816909790e-01</leafValues></_>
        <_>
          <internalNodes>
            0 -1 440 -4.4243549928069115e-03</internalNodes>
          <leafValues>
            2.9373297095298767e-01 -1.5957263112068176e-01</leafValues></_>
        <_>
          <internalNodes>
            0 -1 392 -3.9454963058233261e-02</internalNodes>
          <leafValues>
            -4.3170890212059021e-01 1.1681726574897766e-01</leafValues></_>
        <_>
          <internalNodes>
            0 -1 162 -6.0461317189037800e-03</internalNodes>
          <leafValues>
            5.1372176408767700e-01 -9.0812079608440399e-02</leafValues></_>
        <_>
          <internalNodes>
            0 -1 623 -1.0609121527522802e-03</internalNodes>
          <leafValues>
            2.7902808785438538e-01 -1.9874927401542664e-01</leafValues></_>
        <_>
          <internalNodes>
            0 -1 651 1.7555417434778064e-04</internalNodes>
          <leafValues>
            -1.6641081869602203e-01 2.7344506978988647e-01</leafValues></_>
        <_>
          <internalNodes>
            0 -1 538 4.7682332806289196e-03</internalNodes>
          <leafValues>
            8.2981541752815247e-02 -7.6624691486358643e-01</leafValues></_>
        <_>
          <internalNodes>
            0 -1 462 -1.7650115769356489e-03</internalNodes>
          <leafValues>
            -8.1434434652328491e-01 1.2916086241602898e-02</leafValues></_>
        <_>
          <internalNodes>
            0 -1 319 7.5078045483678579e-04</internalNodes>
          <leafValues>
            9.4658106565475464e-02 -4.9780043959617615e-01</leafValues></_>
        <_>
          <internalNodes>
            0 -1 200 3.1686699949204922e-03</internalNodes>
          <leafValues>
            -2.6743644475936890e-01 1.7953264713287354e-01</leafValues></_>
        <_>
          <internalNodes>
            0 -1 467 -4.4000528752803802e-02</internalNodes>
          <leafValues>
            -7.4832133948802948e-02 6.8852931261062622e-01</leafValues></_>
        <_>
          <internalNodes>
            0 -1 529 1.1181466281414032e-01</internalNodes>
          <leafValues>
            -2.6580435037612915e-01 1.8336153030395508e-01</leafValues></_>
        <_>
          <internalNodes>
            0 -1 353 -4.7476962208747864e-04</internalNodes>
          <leafValues>
            -4.6392044425010681e-01 9.3903757631778717e-02</leafValues></_>
        <_>
          <internalNodes>
            0 -1 71 -3.9306940743699670e-04</internalNodes>
          <leafValues>
            3.7111774086952209e-01 -1.2333622574806213e-01</leafValues></_>
        <_>
          <internalNodes>
            0 -1 194 -2.7344647794961929e-02</internalNodes>
          <leafValues>
            -7.8510171175003052e-01 6.1717201024293900e-02</leafValues></_>
        <_>
          <internalNodes>
            0 -1 559 1.7942138947546482e-03</internalNodes>
          <leafValues>
            -1.3803829252719879e-01 3.5430893301963806e-01</leafValues></_>
        <_>
          <internalNodes>
            0 -1 83 -9.4298087060451508e-02</internalNodes>
          <leafValues>
            -2.4722887575626373e-01 1.7790956795215607e-01</leafValues></_>
        <_>
          <internalNodes>
            0 -1 161 2.2879480384290218e-03</internalNodes>
          <leafValues>
            -6.6693723201751709e-02 7.7564144134521484e-01</leafValues></_>
        <_>
          <internalNodes>
            0 -1 393 -8.1094559282064438e-03</internalNodes>
          <leafValues>
            1.1920800805091858e-01 -4.8118394613265991e-01</leafValues></_>
        <_>
          <internalNodes>
            0 -1 148 1.7067402601242065e-01</internalNodes>
          <leafValues>
            4.7719348222017288e-02 -7.5537902116775513e-01</leafValues></_>
        <_>
          <internalNodes>
            0 -1 620 3.3480285201221704e-03</internalNodes>
          <leafValues>
            -8.8115476071834564e-02 6.1899030208587646e-01</leafValues></_>
        <_>
          <internalNodes>
            0 -1 446 -1.6777765005826950e-02</internalNodes>
          <leafValues>
            -6.2424612045288086e-01 8.8412076234817505e-02</leafValues></_>
        <_>
          <internalNodes>
            0 -1 400 2.2995655890554190e-03</internalNodes>
          <leafValues>
            -1.4544738829135895e-01 4.0620487928390503e-01</leafValues></_></weakClassifiers></_>
    <!-- stage 21 -->
    <_>
      <maxWeakCount>27</maxWeakCount>
      <stageThreshold>-7.5895410776138306e-01</stageThreshold>
      <weakClassifiers>
        <_>
          <internalNodes>
            0 -1 256 -6.0097482055425644e-03</internalNodes>
          <leafValues>
            2.1839080750942230e-01 -2.6993864774703979e-01</leafValues></_>
        <_>
          <internalNodes>
            0 -1 544 2.6478376239538193e-03</internalNodes>
          <leafValues>
            -2.1563762426376343e-01 2.1905371546745300e-01</leafValues></_>
        <_>
          <internalNodes>
            0 -1 381 -9.5783360302448273e-03</internalNodes>
          <leafValues>
            -6.8908709287643433e-01 6.2458649277687073e-02</leafValues></_>
        <_>
          <internalNodes>
            0 -1 317 -4.3972916901111603e-03</internalNodes>
          <leafValues>
            -4.4788032770156860e-01 1.1689034849405289e-01</leafValues></_>
        <_>
          <internalNodes>
            0 -1 473 -3.3938762499019504e-04</internalNodes>
          <leafValues>
            1.8031418323516846e-01 -2.5670444965362549e-01</leafValues></_>
        <_>
          <internalNodes>
            0 -1 539 -4.5614264905452728e-02</internalNodes>
          <leafValues>
            2.3871967196464539e-01 -1.9748747348785400e-01</leafValues></_>
        <_>
          <internalNodes>
            0 -1 366 -5.3978031501173973e-03</internalNodes>
          <leafValues>
            -3.1960624456405640e-01 1.2388471513986588e-01</leafValues></_>
        <_>
          <internalNodes>
            0 -1 323 1.3931191642768681e-04</internalNodes>
          <leafValues>
            -2.1248598396778107e-01 2.3963871598243713e-01</leafValues></_>
        <_>
          <internalNodes>
            0 -1 452 1.0177340591326356e-03</internalNodes>
          <leafValues>
            5.1914751529693604e-02 -6.8177282810211182e-01</leafValues></_>
        <_>
          <internalNodes>
            0 -1 589 4.4328789226710796e-03</internalNodes>
          <leafValues>
            -1.3404957950115204e-01 3.3179655671119690e-01</leafValues></_>
        <_>
          <internalNodes>
            0 -1 242 -7.2416655719280243e-02</internalNodes>
          <leafValues>
            -5.5140620470046997e-01 9.8936572670936584e-02</leafValues></_>
        <_>
          <internalNodes>
            0 -1 557 -3.1436723656952381e-03</internalNodes>
          <leafValues>
            2.6986286044120789e-01 -1.6410470008850098e-01</leafValues></_>
        <_>
          <internalNodes>
            0 -1 637 3.2372793648391962e-03</internalNodes>
          <leafValues>
            -1.0003394633531570e-01 4.8987516760826111e-01</leafValues></_>
        <_>
          <internalNodes>
            0 -1 96 1.7243716120719910e-01</internalNodes>
          <leafValues>
            -2.8128498792648315e-01 1.7809805274009705e-01</leafValues></_>
        <_>
          <internalNodes>
            0 -1 373 -4.3360395357012749e-03</internalNodes>
          <leafValues>
            7.9964703321456909e-01 -7.4990473687648773e-02</leafValues></_>
        <_>
          <internalNodes>
            0 -1 477 1.4259372837841511e-03</internalNodes>
          <leafValues>
            9.8824247717857361e-02 -5.4204386472702026e-01</leafValues></_>
        <_>
          <internalNodes>
            0 -1 524 -1.2607751414179802e-03</internalNodes>
          <leafValues>
            3.4207758307456970e-01 -1.2895566225051880e-01</leafValues></_>
        <_>
          <internalNodes>
            0 -1 299 -1.3410602696239948e-03</internalNodes>
          <leafValues>
            2.9622831940650940e-01 -1.5284506976604462e-01</leafValues></_>
        <_>
          <internalNodes>
            0 -1 333 -1.1104378849267960e-02</internalNodes>
          <leafValues>
            -8.6250841617584229e-01 5.7034850120544434e-02</leafValues></_>
        <_>
          <internalNodes>
            0 -1 555 -3.7771901115775108e-03</internalNodes>
          <leafValues>
            -6.5512001514434814e-01 5.0346117466688156e-02</leafValues></_>
        <_>
          <internalNodes>
            0 -1 74 9.1584566980600357e-03</internalNodes>
          <leafValues>
            -6.2702879309654236e-02 7.4981504678726196e-01</leafValues></_>
        <_>
          <internalNodes>
            0 -1 496 -1.2488383799791336e-04</internalNodes>
          <leafValues>
            -2.5948989391326904e-01 1.8118038773536682e-01</leafValues></_>
        <_>
          <internalNodes>
            0 -1 382 -1.0837556794285774e-02</internalNodes>
          <leafValues>
            -3.4116148948669434e-01 1.2887232005596161e-01</leafValues></_>
        <_>
          <internalNodes>
            0 -1 207 -9.7267620265483856e-02</internalNodes>
          <leafValues>
            4.0237024426460266e-01 -1.1891578882932663e-01</leafValues></_>
        <_>
          <internalNodes>
            0 -1 104 -1.2344463169574738e-01</internalNodes>
          <leafValues>
            -1.2219234555959702e-01 3.6429837346076965e-01</leafValues></_>
        <_>
          <internalNodes>
            0 -1 303 -1.1693115811794996e-03</internalNodes>
          <leafValues>
            6.7105129361152649e-02 -7.5108480453491211e-01</leafValues></_>
        <_>
          <internalNodes>
            0 -1 594 6.9517483934760094e-03</internalNodes>
          <leafValues>
            -1.0974106192588806e-01 4.4682377576828003e-01</leafValues></_></weakClassifiers></_>
    <!-- stage 22 -->
    <_>
      <maxWeakCount>26</maxWeakCount>
      <stageThreshold>-6.1107182502746582e-01</stageThreshold>
      <weakClassifiers>
        <_>
          <internalNodes>
            0 -1 602 -1.0023701936006546e-02</internalNodes>
          <leafValues>
            2.6717558503150940e-01 -2.3114354908466339e-01</leafValues></_>
        <_>
          <internalNodes>
            0 -1 234 -8.8315308094024658e-03</internalNodes>
          <leafValues>
            3.1892523169517517e-01 -1.5075246989727020e-01</leafValues></_>
        <_>
          <internalNodes>
            0 -1 43 -1.9702804274857044e-03</internalNodes>
          <leafValues>
            -1.7822736501693726e-01 2.9765477776527405e-01</leafValues></_>
        <_>
          <internalNodes>
            0 -1 206 8.8659390807151794e-02</internalNodes>
          <leafValues>
            -1.9622623920440674e-01 3.7516945600509644e-01</leafValues></_>
        <_>
          <internalNodes>
            0 -1 229 -3.6110533401370049e-03</internalNodes>
          <leafValues>
            4.9755200743675232e-01 -1.0070392489433289e-01</leafValues></_>
        <_>
          <internalNodes>
            0 -1 649 3.8263062015175819e-03</internalNodes>
          <leafValues>
            -4.7963421791791916e-02 4.7835877537727356e-01</leafValues></_>
        <_>
          <internalNodes>
            0 -1 605 9.3075097538530827e-05</internalNodes>
          <leafValues>
            -2.6739782094955444e-01 1.6994836926460266e-01</leafValues></_>
        <_>
          <internalNodes>
            0 -1 215 -1.0413573682308197e-01</internalNodes>
          <leafValues>
            7.9365849494934082e-01 -5.5550251156091690e-02</leafValues></_>
        <_>
          <internalNodes>
            0 -1 213 6.6485196352005005e-02</internalNodes>
          <leafValues>
            -8.4667645394802094e-02 5.7299619913101196e-01</leafValues></_>
        <_>
          <internalNodes>
            0 -1 258 1.4514824375510216e-02</internalNodes>
          <leafValues>
            -5.5843967944383621e-02 7.7224022150039673e-01</leafValues></_>
        <_>
          <internalNodes>
            0 -1 2 -8.2220416516065598e-03</internalNodes>
          <leafValues>
            6.8342149257659912e-01 -5.5442240089178085e-02</leafValues></_>
        <_>
          <internalNodes>
            0 -1 31 2.9975613951683044e-01</internalNodes>
          <leafValues>
            -7.8727670013904572e-02 5.3399431705474854e-01</leafValues></_>
        <_>
          <internalNodes>
            0 -1 379 -3.4301057457923889e-02</internalNodes>
          <leafValues>
            2.9824534058570862e-01 -1.4530171453952789e-01</leafValues></_>
        <_>
          <internalNodes>
            0 -1 174 -8.2297489047050476e-02</internalNodes>
          <leafValues>
            -5.0404292345046997e-01 9.2669636011123657e-02</leafValues></_>
        <_>
          <internalNodes>
            0 -1 456 1.5100080054253340e-03</internalNodes>
          <leafValues>
            8.0093607306480408e-02 -5.6364613771438599e-01</leafValues></_>
        <_>
          <internalNodes>
            0 -1 58 8.4773615002632141e-02</internalNodes>
          <leafValues>
            4.6412464231252670e-02 -8.5816544294357300e-01</leafValues></_>
        <_>
          <internalNodes>
            0 -1 70 1.7362930811941624e-03</internalNodes>
          <leafValues>
            -9.4956688582897186e-02 5.2165114879608154e-01</leafValues></_>
        <_>
          <internalNodes>
            0 -1 471 -5.9852964477613568e-04</internalNodes>
          <leafValues>
            2.9030331969261169e-01 -1.5155860781669617e-01</leafValues></_>
        <_>
          <internalNodes>
            0 -1 297 8.1536211073398590e-03</internalNodes>
          <leafValues>
            6.0739364475011826e-02 -8.6286020278930664e-01</leafValues></_>
        <_>
          <internalNodes>
            0 -1 318 -1.0531852021813393e-02</internalNodes>
          <leafValues>
            -3.6834734678268433e-01 1.1491905897855759e-01</leafValues></_>
        <_>
          <internalNodes>
            0 -1 56 9.4126217300072312e-04</internalNodes>
          <leafValues>
            -1.1450780183076859e-01 3.8533216714859009e-01</leafValues></_>
        <_>
          <internalNodes>
            0 -1 363 4.4272029772400856e-03</internalNodes>
          <leafValues>
            -1.5679231286048889e-01 2.7419713139533997e-01</leafValues></_>
        <_>
          <internalNodes>
            0 -1 60 4.8876561224460602e-02</internalNodes>
          <leafValues>
            7.0716120302677155e-02 -7.5261056423187256e-01</leafValues></_>
        <_>
          <internalNodes>
            0 -1 55 -8.2667416427284479e-04</internalNodes>
          <leafValues>
            -8.5258483886718750e-02 6.0756337642669678e-01</leafValues></_>
        <_>
          <internalNodes>
            0 -1 286 -1.4879319351166487e-03</internalNodes>
          <leafValues>
            -7.1997791528701782e-01 7.1315042674541473e-02</leafValues></_>
        <_>
          <internalNodes>
            0 -1 81 -6.3474779017269611e-03</internalNodes>
          <leafValues>
            6.1614280939102173e-01 -9.9971219897270203e-02</leafValues></_></weakClassifiers></_>
    <!-- stage 23 -->
    <_>
      <maxWeakCount>27</maxWeakCount>
      <stageThreshold>-7.5994366407394409e-01</stageThreshold>
      <weakClassifiers>
        <_>
          <internalNodes>
            0 -1 151 1.2109932303428650e-01</internalNodes>
          <leafValues>
            -2.0094563066959381e-01 2.5390625000000000e-01</leafValues></_>
        <_>
          <internalNodes>
            0 -1 176 -1.5253740129992366e-03</internalNodes>
          <leafValues>
            2.5919246673583984e-01 -1.5586152672767639e-01</leafValues></_>
        <_>
          <internalNodes>
            0 -1 296 -4.7161648981273174e-03</internalNodes>
          <leafValues>
            1.9557270407676697e-01 -2.0313534140586853e-01</leafValues></_>
        <_>
          <internalNodes>
            0 -1 278 -8.8757485151290894e-02</internalNodes>
          <leafValues>
            8.0854821205139160e-01 -5.6357186287641525e-02</leafValues></_>
        <_>
          <internalNodes>
            0 -1 72 -1.2830032967031002e-02</internalNodes>
          <leafValues>
            2.4468414485454559e-01 -1.6585552692413330e-01</leafValues></_>
        <_>
          <internalNodes>
            0 -1 591 -2.0119347609579563e-03</internalNodes>
          <leafValues>
            4.8292630910873413e-01 -9.6939459443092346e-02</leafValues></_>
        <_>
          <internalNodes>
            0 -1 549 1.5561168547719717e-03</internalNodes>
          <leafValues>
            7.7358111739158630e-02 -9.3346589803695679e-01</leafValues></_>
        <_>
          <internalNodes>
            0 -1 489 2.1053778473287821e-03</internalNodes>
          <leafValues>
            -2.3952190577983856e-01 1.7458631098270416e-01</leafValues></_>
        <_>
          <internalNodes>
            0 -1 648 -1.5660983990528621e-05</internalNodes>
          <leafValues>
            3.0272579193115234e-01 -1.2846100330352783e-01</leafValues></_>
        <_>
          <internalNodes>
            0 -1 436 -7.3114857077598572e-03</internalNodes>
          <leafValues>
            -5.3198719024658203e-01 8.0476738512516022e-02</leafValues></_>
        <_>
          <internalNodes>
            0 -1 4 2.9439856298267841e-03</internalNodes>
          <leafValues>
            -1.3003140687942505e-01 3.3555144071578979e-01</leafValues></_>
        <_>
          <internalNodes>
            0 -1 327 1.4611013233661652e-02</internalNodes>
          <leafValues>
            -1.5096206963062286e-01 2.9785776138305664e-01</leafValues></_>
        <_>
          <internalNodes>
            0 -1 273 1.9205253571271896e-02</internalNodes>
          <leafValues>
            9.0721182525157928e-02 -5.5782687664031982e-01</leafValues></_>
        <_>
          <internalNodes>
            0 -1 220 -4.7793537378311157e-02</internalNodes>
          <leafValues>
            4.6411094069480896e-01 -8.6788438260555267e-02</leafValues></_>
        <_>
          <internalNodes>
            0 -1 640 -1.1362959630787373e-03</internalNodes>
          <leafValues>
            3.7891545891761780e-01 -1.2476682662963867e-01</leafValues></_>
        <_>
          <internalNodes>
            0 -1 335 -2.6142073329538107e-04</internalNodes>
          <leafValues>
            -4.5907837152481079e-01 8.9087426662445068e-02</leafValues></_>
        <_>
          <internalNodes>
            0 -1 262 6.7483009770512581e-03</internalNodes>
          <leafValues>
            7.3711290955543518e-02 -5.5442571640014648e-01</leafValues></_>
        <_>
          <internalNodes>
            0 -1 223 9.1031454503536224e-03</internalNodes>
          <leafValues>
            -1.0572782158851624e-01 4.2356166243553162e-01</leafValues></_>
        <_>
          <internalNodes>
            0 -1 404 -1.8436390673741698e-03</internalNodes>
          <leafValues>
            -6.6301661729812622e-01 6.6878058016300201e-02</leafValues></_>
        <_>
          <internalNodes>
            0 -1 635 7.8483135439455509e-04</internalNodes>
          <leafValues>
            -1.1996077746152878e-01 3.6953428387641907e-01</leafValues></_>
        <_>
          <internalNodes>
            0 -1 228 1.4563992153853178e-03</internalNodes>
          <leafValues>
            -1.0184597969055176e-01 4.0950584411621094e-01</leafValues></_>
        <_>
          <internalNodes>
            0 -1 250 -2.2999618668109179e-03</internalNodes>
          <leafValues>
            -5.3835201263427734e-01 8.9662984013557434e-02</leafValues></_>
        <_>
          <internalNodes>
            0 -1 218 -5.5541247129440308e-03</internalNodes>
          <leafValues>
            2.9164254665374756e-01 -1.5485541522502899e-01</leafValues></_>
        <_>
          <internalNodes>
            0 -1 614 -1.7370646819472313e-03</internalNodes>
          <leafValues>
            4.1846096515655518e-01 -1.1078315228223801e-01</leafValues></_>
        <_>
          <internalNodes>
            0 -1 307 7.3467288166284561e-04</internalNodes>
          <leafValues>
            -1.2002322822809219e-01 3.5127165913581848e-01</leafValues></_>
        <_>
          <internalNodes>
            0 -1 249 -2.2637052461504936e-02</internalNodes>
          <leafValues>
            -7.6372426748275757e-01 6.1432622373104095e-02</leafValues></_>
        <_>
          <internalNodes>
            0 -1 152 -6.3034920021891594e-03</internalNodes>
          <leafValues>
            4.4903451204299927e-01 -1.0643377900123596e-01</leafValues></_></weakClassifiers></_>
    <!-- stage 24 -->
    <_>
      <maxWeakCount>33</maxWeakCount>
      <stageThreshold>-7.4002134799957275e-01</stageThreshold>
      <weakClassifiers>
        <_>
          <internalNodes>
            0 -1 199 -7.3448885232210159e-03</internalNodes>
          <leafValues>
            2.5656566023826599e-01 -1.8636363744735718e-01</leafValues></_>
        <_>
          <internalNodes>
            0 -1 642 -4.7991907922551036e-04</internalNodes>
          <leafValues>
            4.0872219204902649e-01 -9.6039071679115295e-02</leafValues></_>
        <_>
          <internalNodes>
            0 -1 66 8.1998901441693306e-04</internalNodes>
          <leafValues>
            -2.2246292233467102e-01 1.8807283043861389e-01</leafValues></_>
        <_>
          <internalNodes>
            0 -1 628 -3.1727398745715618e-03</internalNodes>
          <leafValues>
            3.8687837123870850e-01 -8.9104995131492615e-02</leafValues></_>
        <_>
          <internalNodes>
            0 -1 596 -1.7412476881872863e-04</internalNodes>
          <leafValues>
            -2.0640666782855988e-01 1.8755309283733368e-01</leafValues></_>
        <_>
          <internalNodes>
            0 -1 464 4.9064389895647764e-04</internalNodes>
          <leafValues>
            6.6910214722156525e-02 -5.6081008911132813e-01</leafValues></_>
        <_>
          <internalNodes>
            0 -1 636 -1.3870390132069588e-02</internalNodes>
          <leafValues>
            3.8414832949638367e-01 -9.2320613563060760e-02</leafValues></_>
        <_>
          <internalNodes>
            0 -1 647 3.0836503719910979e-04</internalNodes>
          <leafValues>
            -1.5120841562747955e-01 3.2098481059074402e-01</leafValues></_>
        <_>
          <internalNodes>
            0 -1 610 -4.4869948178529739e-03</internalNodes>
          <leafValues>
            -3.8132277131080627e-01 1.3073301315307617e-01</leafValues></_>
        <_>
          <internalNodes>
            0 -1 255 -2.7672646101564169e-03</internalNodes>
          <leafValues>
            3.4541058540344238e-01 -1.3053596019744873e-01</leafValues></_>
        <_>
          <internalNodes>
            0 -1 38 -1.8917005509138107e-02</internalNodes>
          <leafValues>
            3.4938251972198486e-01 -1.1119837313890457e-01</leafValues></_>
        <_>
          <internalNodes>
            0 -1 621 2.6004752144217491e-03</internalNodes>
          <leafValues>
            -3.0213004350662231e-01 1.2452503293752670e-01</leafValues></_>
        <_>
          <internalNodes>
            0 -1 624 -7.0536118000745773e-03</internalNodes>
          <leafValues>
            -1.0704433917999268e-01 4.1678288578987122e-01</leafValues></_>
        <_>
          <internalNodes>
            0 -1 426 8.4166310261934996e-04</internalNodes>
          <leafValues>
            9.0698473155498505e-02 -3.9706411957740784e-01</leafValues></_>
        <_>
          <internalNodes>
            0 -1 450 -2.1732293535023928e-03</internalNodes>
          <leafValues>
            1.4254115521907806e-01 -3.3245971798896790e-01</leafValues></_>
        <_>
          <internalNodes>
            0 -1 197 -1.2690553441643715e-02</internalNodes>
          <leafValues>
            -5.7271754741668701e-01 8.1350520253181458e-02</leafValues></_>
        <_>
          <internalNodes>
            0 -1 57 1.8948759883642197e-02</internalNodes>
          <leafValues>
            5.3023997694253922e-02 -7.3130476474761963e-01</leafValues></_>
        <_>
          <internalNodes>
            0 -1 160 -3.8045276887714863e-03</internalNodes>
          <leafValues>
            3.2040148973464966e-01 -1.3874112069606781e-01</leafValues></_>
        <_>
          <internalNodes>
            0 -1 193 6.9109851028770208e-04</internalNodes>
          <leafValues>
            -1.5797230601310730e-01 4.9003246426582336e-01</leafValues></_>
        <_>
          <internalNodes>
            0 -1 417 -5.1918053068220615e-03</internalNodes>
          <leafValues>
            3.0527338385581970e-01 -1.3568753004074097e-01</leafValues></_>
        <_>
          <internalNodes>
            0 -1 334 7.3421103879809380e-03</internalNodes>
          <leafValues>
            -3.7270370125770569e-01 1.1839661002159119e-01</leafValues></_>
        <_>
          <internalNodes>
            0 -1 346 -7.5225774198770523e-03</internalNodes>
          <leafValues>
            -1.1312462389469147e-01 5.3830575942993164e-01</leafValues></_>
        <_>
          <internalNodes>
            0 -1 310 -1.0562758892774582e-02</internalNodes>
          <leafValues>
            -2.7900916337966919e-01 1.5968421101570129e-01</leafValues></_>
        <_>
          <internalNodes>
            0 -1 608 -7.0528755895793438e-04</internalNodes>
          <leafValues>
            3.1755036115646362e-01 -1.5228797495365143e-01</leafValues></_>
        <_>
          <internalNodes>
            0 -1 514 -6.8096537142992020e-03</internalNodes>
          <leafValues>
            7.2835512459278107e-02 -5.7718479633331299e-01</leafValues></_>
        <_>
          <internalNodes>
            0 -1 281 1.2354528298601508e-03</internalNodes>
          <leafValues>
            -1.0222230851650238e-01 4.7417253255844116e-01</leafValues></_>
        <_>
          <internalNodes>
            0 -1 627 2.8924067009938881e-05</internalNodes>
          <leafValues>
            -2.0785976946353912e-01 2.0929409563541412e-01</leafValues></_>
        <_>
          <internalNodes>
            0 -1 476 -1.3714171655010432e-04</internalNodes>
          <leafValues>
            8.4230072796344757e-02 -5.1350867748260498e-01</leafValues></_>
        <_>
          <internalNodes>
            0 -1 413 2.3189844796434045e-04</internalNodes>
          <leafValues>
            1.4635300636291504e-01 -2.9653456807136536e-01</leafValues></_>
        <_>
          <internalNodes>
            0 -1 411 -6.0288466513156891e-02</internalNodes>
          <leafValues>
            -8.9216816425323486e-01 4.3975576758384705e-02</leafValues></_>
        <_>
          <internalNodes>
            0 -1 564 9.2450005467981100e-04</internalNodes>
          <leafValues>
            -1.3852974772453308e-01 3.3853062987327576e-01</leafValues></_>
        <_>
          <internalNodes>
            0 -1 291 -3.6913353949785233e-02</internalNodes>
          <leafValues>
            -5.3914570808410645e-01 8.1537798047065735e-02</leafValues></_>
        <_>
          <internalNodes>
            0 -1 416 6.9855842739343643e-03</internalNodes>
          <leafValues>
            -1.1092451959848404e-01 3.8671422004699707e-01</leafValues></_></weakClassifiers></_>
    <!-- stage 25 -->
    <_>
      <maxWeakCount>28</maxWeakCount>
      <stageThreshold>-7.9519701004028320e-01</stageThreshold>
      <weakClassifiers>
        <_>
          <internalNodes>
            0 -1 408 1.7942496342584491e-03</internalNodes>
          <leafValues>
            -2.2955144941806793e-01 2.3741006851196289e-01</leafValues></_>
        <_>
          <internalNodes>
            0 -1 570 5.7768188416957855e-03</internalNodes>
          <leafValues>
            7.3225833475589752e-02 -6.6608148813247681e-01</leafValues></_>
        <_>
          <internalNodes>
            0 -1 510 2.0418718922883272e-03</internalNodes>
          <leafValues>
            9.2928290367126465e-02 -7.4762207269668579e-01</leafValues></_>
        <_>
          <internalNodes>
            0 -1 429 -6.1708642169833183e-04</internalNodes>
          <leafValues>
            -6.5457415580749512e-01 5.5486984550952911e-02</leafValues></_>
        <_>
          <internalNodes>
            0 -1 5 7.2262277826666832e-03</internalNodes>
          <leafValues>
            -1.3013944029808044e-01 3.1664666533470154e-01</leafValues></_>
        <_>
          <internalNodes>
            0 -1 16 2.0615370571613312e-01</internalNodes>
          <leafValues>
            -3.9425912499427795e-01 9.4177141785621643e-02</leafValues></_>
        <_>
          <internalNodes>
            0 -1 52 -1.4466875791549683e-01</internalNodes>
          <leafValues>
            7.8540372848510742e-01 -8.8432066142559052e-02</leafValues></_>
        <_>
          <internalNodes>
            0 -1 126 -3.2629538327455521e-03</internalNodes>
          <leafValues>
            3.7997207045555115e-01 -1.0501103103160858e-01</leafValues></_>
        <_>
          <internalNodes>
            0 -1 224 -1.2601529248058796e-02</internalNodes>
          <leafValues>
            9.2510618269443512e-02 -3.8579669594764709e-01</leafValues></_>
        <_>
          <internalNodes>
            0 -1 157 -3.8585267961025238e-02</internalNodes>
          <leafValues>
            -3.8732901215553284e-02 6.9442576169967651e-01</leafValues></_>
        <_>
          <internalNodes>
            0 -1 398 -3.5273418761789799e-03</internalNodes>
          <leafValues>
            7.9908564686775208e-02 -4.9390852451324463e-01</leafValues></_>
        <_>
          <internalNodes>
            0 -1 48 1.0373082011938095e-02</internalNodes>
          <leafValues>
            -1.1067344248294830e-01 3.5437798500061035e-01</leafValues></_>
        <_>
          <internalNodes>
            0 -1 75 -9.0039160568267107e-04</internalNodes>
          <leafValues>
            5.0273728370666504e-01 -1.1305903643369675e-01</leafValues></_>
        <_>
          <internalNodes>
            0 -1 69 1.1943652480840683e-01</internalNodes>
          <leafValues>
            -8.6420468986034393e-02 4.5808261632919312e-01</leafValues></_>
        <_>
          <internalNodes>
            0 -1 650 -8.5642488556914032e-05</internalNodes>
          <leafValues>
            -2.1155808866024017e-01 1.9653011858463287e-01</leafValues></_>
        <_>
          <internalNodes>
            0 -1 525 -8.2213999703526497e-03</internalNodes>
          <leafValues>
            4.8312929272651672e-01 -1.0048484802246094e-01</leafValues></_>
        <_>
          <internalNodes>
            0 -1 401 2.6374519802629948e-03</internalNodes>
          <leafValues>
            6.1381693929433823e-02 -7.5811111927032471e-01</leafValues></_>
        <_>
          <internalNodes>
            0 -1 11 2.4719615280628204e-01</internalNodes>
          <leafValues>
            5.9713952243328094e-02 -6.3681513071060181e-01</leafValues></_>
        <_>
          <internalNodes>
            0 -1 541 -2.4356640642508864e-04</internalNodes>
          <leafValues>
            1.8101496994495392e-01 -2.7612617611885071e-01</leafValues></_>
        <_>
          <internalNodes>
            0 -1 80 2.3521529510617256e-03</internalNodes>
          <leafValues>
            -1.3237571716308594e-01 3.0922082066535950e-01</leafValues></_>
        <_>
          <internalNodes>
            0 -1 338 -2.8538709506392479e-02</internalNodes>
          <leafValues>
            -5.5013543367385864e-01 9.2507995665073395e-02</leafValues></_>
        <_>
          <internalNodes>
            0 -1 583 3.6143946927040815e-03</internalNodes>
          <leafValues>
            -1.7889301478862762e-01 2.9847913980484009e-01</leafValues></_>
        <_>
          <internalNodes>
            0 -1 414 3.7439467851072550e-03</internalNodes>
          <leafValues>
            -9.2722781002521515e-02 3.9345285296440125e-01</leafValues></_>
        <_>
          <internalNodes>
            0 -1 396 -1.5008775517344475e-04</internalNodes>
          <leafValues>
            2.1259924769401550e-01 -2.0410794019699097e-01</leafValues></_>
        <_>
          <internalNodes>
            0 -1 360 -3.4196942579001188e-04</internalNodes>
          <leafValues>
            -5.3936809301376343e-01 8.1983759999275208e-02</leafValues></_>
        <_>
          <internalNodes>
            0 -1 105 -1.7654055356979370e-01</internalNodes>
          <leafValues>
            -5.2224185317754745e-02 8.4948855638504028e-01</leafValues></_>
        <_>
          <internalNodes>
            0 -1 68 1.6058329492807388e-03</internalNodes>
          <leafValues>
            -2.2380764782428741e-01 2.1053045988082886e-01</leafValues></_>
        <_>
          <internalNodes>
            0 -1 306 2.1285926923155785e-03</internalNodes>
          <leafValues>
            -1.4709357917308807e-01 3.1978651881217957e-01</leafValues></_></weakClassifiers></_>
    <!-- stage 26 -->
    <_>
      <maxWeakCount>32</maxWeakCount>
      <stageThreshold>-7.4838167428970337e-01</stageThreshold>
      <weakClassifiers>
        <_>
          <internalNodes>
            0 -1 556 -5.2547633647918701e-02</internalNodes>
          <leafValues>
            3.0366492271423340e-01 -1.2839059531688690e-01</leafValues></_>
        <_>
          <internalNodes>
            0 -1 39 1.5913907438516617e-02</internalNodes>
          <leafValues>
            -1.9692125916481018e-01 2.2504195570945740e-01</leafValues></_>
        <_>
          <internalNodes>
            0 -1 274 1.9246507436037064e-02</internalNodes>
          <leafValues>
            5.6096583604812622e-02 -6.7638593912124634e-01</leafValues></_>
        <_>
          <internalNodes>
            0 -1 506 -1.4054772909730673e-03</internalNodes>
          <leafValues>
            4.2073231935501099e-01 -9.4793088734149933e-02</leafValues></_>
        <_>
          <internalNodes>
            0 -1 503 -3.6552630364894867e-02</internalNodes>
          <leafValues>
            -9.3030756711959839e-01 3.1898964196443558e-02</leafValues></_>
        <_>
          <internalNodes>
            0 -1 354 2.6287508662790060e-03</internalNodes>
