<?xml version="1.0"?>
<opencv_storage>
<stage3>
  <maxWeakCount>10</maxWeakCount>
  <stageThreshold>-9.9008929729461670e-01</stageThreshold>
  <weakClassifiers>
    <_>
      <internalNodes>
        0 -1 43676 1.1315344274044037e-01</internalNodes>
      <leafValues>
        -5.2631580829620361e-01 5.9498953819274902e-01</leafValues></_>
    <_>
      <internalNodes>
        0 -1 1099 -7.4056720733642578e-01</internalNodes>
      <leafValues>
        -4.7955837845802307e-01 5.6829142570495605e-01</leafValues></_>
    <_>
      <internalNodes>
        0 -1 99266 1.1197000741958618e-02</internalNodes>
      <leafValues>
        -4.3609699606895447e-01 4.9743416905403137e-01</leafValues></_>
    <_>
      <internalNodes>
        0 -1 80740 -4.7779455780982971e-03</internalNodes>
      <leafValues>
        6.1266726255416870e-01 -3.0789703130722046e-01</leafValues></_>
    <_>
      <internalNodes>
        0 -1 119615 2.4520841543562710e-04</internalNodes>
      <leafValues>
        2.6524561643600464e-01 -6.9989323616027832e-01</leafValues></_>
    <_>
      <internalNodes>
        0 -1 1641 -1.2904006242752075e-01</internalNodes>
      <leafValues>
        -7.7003383636474609e-01 2.4808011949062347e-01</leafValues></_>
    <_>
      <internalNodes>
        0 -1 4122 6.3095535151660442e-03</internalNodes>
      <leafValues>
        -2.4212723970413208e-01 6.7826843261718750e-01</leafValues></_>
    <_>
      <internalNodes>
        0 -1 1073 -3.7959760427474976e-01</internalNodes>
      <leafValues>
        -1.7758502066135406e-01 7.4738085269927979e-01</leafValues></_>
    <_>
      <internalNodes>
        0 -1 113809 -1.7834703903645277e-03</internalNodes>
      <leafValues>
        3.1236124038696289e-01 -4.7524648904800415e-01</leafValues></_>
    <_>
      <internalNodes>
        0 -1 124998 1.0263666510581970e-02</internalNodes>
      <leafValues>
        -3.3880698680877686e-01 3.8541182875633240e-01</leafValues></_></weakClassifiers></stage3>
</opencv_storage>
