<?xml version="1.0"?>
<opencv_storage>
<stage7>
  <maxWeakCount>14</maxWeakCount>
  <stageThreshold>-1.1133375167846680e+00</stageThreshold>
  <weakClassifiers>
    <_>
      <internalNodes>
        0 -1 10729 2.9825692996382713e-02</internalNodes>
      <leafValues>
        -3.5211268067359924e-01 5.0228309631347656e-01</leafValues></_>
    <_>
      <internalNodes>
        0 -1 158359 -2.6440612971782684e-02</internalNodes>
      <leafValues>
        4.6796783804893494e-01 -2.4305994808673859e-01</leafValues></_>
    <_>
      <internalNodes>
        0 -1 141344 -3.1865842640399933e-02</internalNodes>
      <leafValues>
        -8.4610891342163086e-01 1.4286670088768005e-01</leafValues></_>
    <_>
      <internalNodes>
        0 -1 1068 4.0755506604909897e-02</internalNodes>
      <leafValues>
        -2.9410117864608765e-01 3.9555275440216064e-01</leafValues></_>
    <_>
      <internalNodes>
        0 -1 30950 9.8316907882690430e-02</internalNodes>
      <leafValues>
        -3.6763128638267517e-01 3.7377107143402100e-01</leafValues></_>
    <_>
      <internalNodes>
        0 -1 28631 -3.8290297985076904e-01</internalNodes>
      <leafValues>
        9.3174147605895996e-01 -1.0696113854646683e-01</leafValues></_>
    <_>
      <internalNodes>
        0 -1 88546 7.2375329909846187e-04</internalNodes>
      <leafValues>
        1.8420222401618958e-01 -6.9521772861480713e-01</leafValues></_>
    <_>
      <internalNodes>
        0 -1 151665 -1.7065545544028282e-03</internalNodes>
      <leafValues>
        2.9073277115821838e-01 -3.5305875539779663e-01</leafValues></_>
    <_>
      <internalNodes>
        0 -1 37915 -1.1911353096365929e-02</internalNodes>
      <leafValues>
        6.7731863260269165e-01 -1.6301555931568146e-01</leafValues></_>
    <_>
      <internalNodes>
        0 -1 90356 -2.3547898977994919e-02</internalNodes>
      <leafValues>
        3.3232077956199646e-01 -2.7526283264160156e-01</leafValues></_>
    <_>
      <internalNodes>
        0 -1 84772 -1.6262769699096680e-02</internalNodes>
      <leafValues>
        -8.6005514860153198e-01 1.2220077216625214e-01</leafValues></_>
    <_>
      <internalNodes>
        0 -1 154017 2.1674353629350662e-03</internalNodes>
      <leafValues>
        -2.2381015121936798e-01 4.5089972019195557e-01</leafValues></_>
    <_>
      <internalNodes>
        0 -1 161772 4.1284295730292797e-03</internalNodes>
      <leafValues>
        -1.3887192308902740e-01 6.4740246534347534e-01</leafValues></_>
    <_>
      <internalNodes>
        0 -1 60226 -1.1081220582127571e-02</internalNodes>
      <leafValues>
        3.6251732707023621e-01 -2.8308704495429993e-01</leafValues></_></weakClassifiers></stage7>
</opencv_storage>
