<?xml version="1.0"?>
<opencv_storage>
<stage12>
  <maxWeakCount>20</maxWeakCount>
  <stageThreshold>-8.8434916734695435e-01</stageThreshold>
  <weakClassifiers>
    <_>
      <internalNodes>
        0 -1 2586 1.4954801648855209e-02</internalNodes>
      <leafValues>
        -3.4005036950111389e-01 3.3457249402999878e-01</leafValues></_>
    <_>
      <internalNodes>
        0 -1 114267 -1.2064855545759201e-02</internalNodes>
      <leafValues>
        3.0598515272140503e-01 -3.0554154515266418e-01</leafValues></_>
    <_>
      <internalNodes>
        0 -1 148962 3.9313603192567825e-03</internalNodes>
      <leafValues>
        -2.1270507574081421e-01 3.5822153091430664e-01</leafValues></_>
    <_>
      <internalNodes>
        0 -1 109081 9.2922106385231018e-02</internalNodes>
      <leafValues>
        -3.9519840478897095e-01 1.8272987008094788e-01</leafValues></_>
    <_>
      <internalNodes>
        0 -1 1113 8.1155798397958279e-04</internalNodes>
      <leafValues>
        -1.9289262592792511e-01 4.7391894459724426e-01</leafValues></_>
    <_>
      <internalNodes>
        0 -1 146665 -4.8552183434367180e-03</internalNodes>
      <leafValues>
        -7.8392881155014038e-01 1.1042524129152298e-01</leafValues></_>
    <_>
      <internalNodes>
        0 -1 93127 -2.5461729615926743e-02</internalNodes>
      <leafValues>
        -5.1244544982910156e-01 1.2531805038452148e-01</leafValues></_>
    <_>
      <internalNodes>
        0 -1 1167 1.1146761476993561e-02</internalNodes>
      <leafValues>
        -1.2949419021606445e-01 5.7893794775009155e-01</leafValues></_>
    <_>
      <internalNodes>
        0 -1 24526 -2.8561141341924667e-02</internalNodes>
      <leafValues>
        5.4077625274658203e-01 -1.4098219573497772e-01</leafValues></_>
    <_>
      <internalNodes>
        0 -1 159899 -3.6247964017093182e-03</internalNodes>
      <leafValues>
        3.7520939111709595e-01 -1.7408956587314606e-01</leafValues></_>
    <_>
      <internalNodes>
        0 -1 155108 -3.1287614256143570e-03</internalNodes>
      <leafValues>
        6.3061285018920898e-01 -1.2471931427717209e-01</leafValues></_>
    <_>
      <internalNodes>
        0 -1 7427 1.7766945529729128e-03</internalNodes>
      <leafValues>
        -1.3438276946544647e-01 4.5949977636337280e-01</leafValues></_>
    <_>
      <internalNodes>
        0 -1 11489 -8.2973239477723837e-04</internalNodes>
      <leafValues>
        5.8572399616241455e-01 -1.2576153874397278e-01</leafValues></_>
    <_>
      <internalNodes>
        0 -1 155155 4.4153961353003979e-03</internalNodes>
      <leafValues>
        -1.4417992532253265e-01 4.7276744246482849e-01</leafValues></_>
    <_>
      <internalNodes>
        0 -1 59642 2.0736379548907280e-02</internalNodes>
      <leafValues>
        9.7374632954597473e-02 -9.7527939081192017e-01</leafValues></_>
    <_>
      <internalNodes>
        0 -1 67230 2.3579798289574683e-04</internalNodes>
      <leafValues>
        -3.1206557154655457e-01 2.2872179746627808e-01</leafValues></_>
    <_>
      <internalNodes>
        0 -1 97464 -3.5687151830643415e-04</internalNodes>
      <leafValues>
        1.7449726164340973e-01 -5.0940120220184326e-01</leafValues></_>
    <_>
      <internalNodes>
        0 -1 145586 -5.7793851941823959e-02</internalNodes>
      <leafValues>
        8.5734987258911133e-01 -1.1023820191621780e-01</leafValues></_>
    <_>
      <internalNodes>
        0 -1 57057 -1.2468837201595306e-01</internalNodes>
      <leafValues>
        4.9892345070838928e-01 -1.0912317782640457e-01</leafValues></_>
    <_>
      <internalNodes>
        0 -1 80703 -1.1432627215981483e-03</internalNodes>
      <leafValues>
        4.0388512611389160e-01 -1.4234226942062378e-01</leafValues></_></weakClassifiers></stage12>
</opencv_storage>
