<?xml version="1.0"?>
<opencv_storage>
<stage15>
  <maxWeakCount>23</maxWeakCount>
  <stageThreshold>-8.2547098398208618e-01</stageThreshold>
  <weakClassifiers>
    <_>
      <internalNodes>
        0 -1 25659 1.1363112367689610e-02</internalNodes>
      <leafValues>
        -1.4150942862033844e-01 4.5150500535964966e-01</leafValues></_>
    <_>
      <internalNodes>
        0 -1 114820 -1.7212176695466042e-02</internalNodes>
      <leafValues>
        2.2481484711170197e-01 -2.9649925231933594e-01</leafValues></_>
    <_>
      <internalNodes>
        0 -1 75102 -2.4720663204789162e-02</internalNodes>
      <leafValues>
        -8.5784143209457397e-01 8.3454705774784088e-02</leafValues></_>
    <_>
      <internalNodes>
        0 -1 159993 -4.7565628774464130e-03</internalNodes>
      <leafValues>
        4.2025318741798401e-01 -1.3838958740234375e-01</leafValues></_>
    <_>
      <internalNodes>
        0 -1 38833 -1.3748136162757874e-01</internalNodes>
      <leafValues>
        -1.9415128231048584e-01 3.4672862291336060e-01</leafValues></_>
    <_>
      <internalNodes>
        0 -1 9 9.2805607710033655e-04</internalNodes>
      <leafValues>
        -1.6023798286914825e-01 4.8552888631820679e-01</leafValues></_>
    <_>
      <internalNodes>
        0 -1 43757 -1.8405111040920019e-03</internalNodes>
      <leafValues>
        6.6274845600128174e-01 -1.0237266868352890e-01</leafValues></_>
    <_>
      <internalNodes>
        0 -1 78174 -3.4736504312604666e-03</internalNodes>
      <leafValues>
        3.8127964735031128e-01 -1.6330981254577637e-01</leafValues></_>
    <_>
      <internalNodes>
        0 -1 18719 1.1876248568296432e-01</internalNodes>
      <leafValues>
        -4.2264631390571594e-01 1.6205936670303345e-01</leafValues></_>
    <_>
      <internalNodes>
        0 -1 37818 -1.1512367054820061e-02</internalNodes>
      <leafValues>
        5.0728636980056763e-01 -1.2872081995010376e-01</leafValues></_>
    <_>
      <internalNodes>
        0 -1 76652 -9.4207145273685455e-02</internalNodes>
      <leafValues>
        -7.9550296068191528e-01 7.6394602656364441e-02</leafValues></_>
    <_>
      <internalNodes>
        0 -1 77271 -2.9908519983291626e-01</internalNodes>
      <leafValues>
        -2.2430977225303650e-01 2.3478619754314423e-01</leafValues></_>
    <_>
      <internalNodes>
        0 -1 24793 1.6733050346374512e-02</internalNodes>
      <leafValues>
        -1.8386763334274292e-01 3.6831858754158020e-01</leafValues></_>
    <_>
      <internalNodes>
        0 -1 124322 -4.2994488030672073e-03</internalNodes>
      <leafValues>
        1.0477465391159058e-01 -5.7996785640716553e-01</leafValues></_>
    <_>
      <internalNodes>
        0 -1 156468 5.8538920711725950e-04</internalNodes>
      <leafValues>
        -2.4683637917041779e-01 2.6463416218757629e-01</leafValues></_>
    <_>
      <internalNodes>
        0 -1 1229 -1.0366806760430336e-02</internalNodes>
      <leafValues>
        3.3169463276863098e-01 -1.5855517983436584e-01</leafValues></_>
    <_>
      <internalNodes>
        0 -1 98634 -5.7500833645462990e-03</internalNodes>
      <leafValues>
        2.7279800176620483e-01 -2.0105823874473572e-01</leafValues></_>
    <_>
      <internalNodes>
        0 -1 133124 4.8795290058478713e-04</internalNodes>
      <leafValues>
        8.4715738892555237e-02 -6.6445028781890869e-01</leafValues></_>
    <_>
      <internalNodes>
        0 -1 127533 -5.2315857261419296e-02</internalNodes>
      <leafValues>
        -3.4223118424415588e-01 1.4255091547966003e-01</leafValues></_>
    <_>
      <internalNodes>
        0 -1 149943 1.7601910978555679e-02</internalNodes>
      <leafValues>
        -2.0989884436130524e-01 2.3771484196186066e-01</leafValues></_>
    <_>
      <internalNodes>
        0 -1 16011 1.0594565421342850e-01</internalNodes>
      <leafValues>
        1.0653223097324371e-01 -5.3390318155288696e-01</leafValues></_>
    <_>
      <internalNodes>
        0 -1 16315 -1.9311992218717933e-03</internalNodes>
      <leafValues>
        3.5681188106536865e-01 -1.3945108652114868e-01</leafValues></_>
    <_>
      <internalNodes>
        0 -1 15389 5.0611849874258041e-03</internalNodes>
      <leafValues>
        -1.1391386389732361e-01 6.0650372505187988e-01</leafValues></_></weakClassifiers></stage15>
</opencv_storage>
