<?xml version="1.0"?>
<opencv_storage>
<stage28>
  <maxWeakCount>29</maxWeakCount>
  <stageThreshold>-7.1585226058959961e-01</stageThreshold>
  <weakClassifiers>
    <_>
      <internalNodes>
        0 -1 37522 -2.3440639488399029e-03</internalNodes>
      <leafValues>
        2.6948773860931396e-01 -1.5637859702110291e-01</leafValues></_>
    <_>
      <internalNodes>
        0 -1 264 -5.1376007497310638e-02</internalNodes>
      <leafValues>
        6.0656934976577759e-01 -7.2689011693000793e-02</leafValues></_>
    <_>
      <internalNodes>
        0 -1 40597 1.2731298338621855e-03</internalNodes>
      <leafValues>
        -3.4863254427909851e-01 1.1540597677230835e-01</leafValues></_>
    <_>
      <internalNodes>
        0 -1 5186 1.2889625504612923e-03</internalNodes>
      <leafValues>
        -3.5058665275573730e-01 1.5145961940288544e-01</leafValues></_>
    <_>
      <internalNodes>
        0 -1 23705 7.1533308364450932e-03</internalNodes>
      <leafValues>
        -1.2372498214244843e-01 3.9131245017051697e-01</leafValues></_>
    <_>
      <internalNodes>
        0 -1 125105 -1.3628682354465127e-03</internalNodes>
      <leafValues>
        4.4048336148262024e-01 -8.7975509464740753e-02</leafValues></_>
    <_>
      <internalNodes>
        0 -1 98784 5.2963388152420521e-03</internalNodes>
      <leafValues>
        -2.0275114476680756e-01 2.1561518311500549e-01</leafValues></_>
    <_>
      <internalNodes>
        0 -1 128616 6.2278369441628456e-03</internalNodes>
      <leafValues>
        -7.7350534498691559e-02 4.2417418956756592e-01</leafValues></_>
    <_>
      <internalNodes>
        0 -1 43415 2.9581991955637932e-02</internalNodes>
      <leafValues>
        1.0800821334123611e-01 -3.6618658900260925e-01</leafValues></_>
    <_>
      <internalNodes>
        0 -1 85340 1.3085562968626618e-03</internalNodes>
      <leafValues>
        -2.0433302223682404e-01 2.3988807201385498e-01</leafValues></_>
    <_>
      <internalNodes>
        0 -1 66134 -2.6306128129363060e-03</internalNodes>
      <leafValues>
        -6.4499020576477051e-01 7.1722835302352905e-02</leafValues></_>
    <_>
      <internalNodes>
        0 -1 133334 3.8388199172914028e-03</internalNodes>
      <leafValues>
        2.7303947135806084e-02 -8.1367355585098267e-01</leafValues></_>
    <_>
      <internalNodes>
        0 -1 49158 1.0475651361048222e-03</internalNodes>
      <leafValues>
        -2.3031878471374512e-01 2.0170098543167114e-01</leafValues></_>
    <_>
      <internalNodes>
        0 -1 56914 -3.4300006926059723e-02</internalNodes>
      <leafValues>
        5.2341759204864502e-01 -7.9546213150024414e-02</leafValues></_>
    <_>
      <internalNodes>
        0 -1 148208 8.6125936359167099e-03</internalNodes>
      <leafValues>
        -1.3234773278236389e-01 3.7738317251205444e-01</leafValues></_>
    <_>
      <internalNodes>
        0 -1 76661 1.9375074654817581e-02</internalNodes>
      <leafValues>
        -1.6011236608028412e-01 2.9283118247985840e-01</leafValues></_>
    <_>
      <internalNodes>
        0 -1 78646 9.7467761952430010e-04</internalNodes>
      <leafValues>
        1.1337280273437500e-01 -4.3100649118423462e-01</leafValues></_>
    <_>
      <internalNodes>
        0 -1 13099 -4.7658488154411316e-02</internalNodes>
      <leafValues>
        -8.2400733232498169e-01 5.2439551800489426e-02</leafValues></_>
    <_>
      <internalNodes>
        0 -1 44523 -2.0539224147796631e-02</internalNodes>
      <leafValues>
        -6.1002391576766968e-01 5.5083192884922028e-02</leafValues></_>
    <_>
      <internalNodes>
        0 -1 157829 -1.1615306138992310e-03</internalNodes>
      <leafValues>
        1.4527936279773712e-01 -2.8048819303512573e-01</leafValues></_>
    <_>
      <internalNodes>
        0 -1 140009 2.1688861306756735e-03</internalNodes>
      <leafValues>
        5.3389210253953934e-02 -7.9498642683029175e-01</leafValues></_>
    <_>
      <internalNodes>
        0 -1 26012 4.2663089931011200e-02</internalNodes>
      <leafValues>
        8.0165550112724304e-02 -4.8834905028343201e-01</leafValues></_>
    <_>
      <internalNodes>
        0 -1 81 -1.8363550771027803e-04</internalNodes>
      <leafValues>
        2.5930315256118774e-01 -1.7129069566726685e-01</leafValues></_>
    <_>
      <internalNodes>
        0 -1 143228 8.2107190974056721e-04</internalNodes>
      <leafValues>
        -9.6929691731929779e-02 4.8862823843955994e-01</leafValues></_>
    <_>
      <internalNodes>
        0 -1 89669 -3.1676851212978363e-02</internalNodes>
      <leafValues>
        2.5920650362968445e-01 -1.5267747640609741e-01</leafValues></_>
    <_>
      <internalNodes>
        0 -1 1084 3.7739665713161230e-03</internalNodes>
      <leafValues>
        -2.6872053742408752e-01 1.6352109611034393e-01</leafValues></_>
    <_>
      <internalNodes>
        0 -1 172 -4.8076093196868896e-02</internalNodes>
      <leafValues>
        -5.2285671234130859e-01 7.9250283539295197e-02</leafValues></_>
    <_>
      <internalNodes>
        0 -1 4089 -1.3910296838730574e-03</internalNodes>
      <leafValues>
        5.5418843030929565e-01 -8.9311771094799042e-02</leafValues></_>
    <_>
      <internalNodes>
        0 -1 13412 -1.6686861636117101e-03</internalNodes>
      <leafValues>
        4.4282341003417969e-01 -9.4033583998680115e-02</leafValues></_></weakClassifiers></stage28>
</opencv_storage>
