<?xml version="1.0"?>
<opencv_storage>
<stage4>
  <maxWeakCount>11</maxWeakCount>
  <stageThreshold>-9.1916656494140625e-01</stageThreshold>
  <weakClassifiers>
    <_>
      <internalNodes>
        0 -1 14412 3.6800253391265869e-01</internalNodes>
      <leafValues>
        -3.9622640609741211e-01 5.1091700792312622e-01</leafValues></_>
    <_>
      <internalNodes>
        0 -1 14376 6.3003855757415295e-03</internalNodes>
      <leafValues>
        -3.5173445940017700e-01 6.0900956392288208e-01</leafValues></_>
    <_>
      <internalNodes>
        0 -1 160028 -6.6856113262474537e-03</internalNodes>
      <leafValues>
        5.5960065126419067e-01 -2.7789485454559326e-01</leafValues></_>
    <_>
      <internalNodes>
        0 -1 60378 -2.1959923207759857e-02</internalNodes>
      <leafValues>
        -5.7731610536575317e-01 2.5424003601074219e-01</leafValues></_>
    <_>
      <internalNodes>
        0 -1 44930 8.9267671108245850e-02</internalNodes>
      <leafValues>
        -2.0826190710067749e-01 6.8125104904174805e-01</leafValues></_>
    <_>
      <internalNodes>
        0 -1 56983 -5.0157666206359863e-02</internalNodes>
      <leafValues>
        -7.6103198528289795e-01 1.7444813251495361e-01</leafValues></_>
    <_>
      <internalNodes>
        0 -1 104780 -3.4315548837184906e-03</internalNodes>
      <leafValues>
        -8.1371426582336426e-01 8.8291138410568237e-02</leafValues></_>
    <_>
      <internalNodes>
        0 -1 145672 6.6643310710787773e-03</internalNodes>
      <leafValues>
        8.3827264606952667e-02 -9.7048032283782959e-01</leafValues></_>
    <_>
      <internalNodes>
        0 -1 66504 6.5304338932037354e-02</internalNodes>
      <leafValues>
        1.2502157688140869e-01 -6.7814290523529053e-01</leafValues></_>
    <_>
      <internalNodes>
        0 -1 1182 -1.0088788345456123e-02</internalNodes>
      <leafValues>
        -5.9690111875534058e-01 1.6666606068611145e-01</leafValues></_>
    <_>
      <internalNodes>
        0 -1 36102 -8.0800103023648262e-03</internalNodes>
      <leafValues>
        2.2562134265899658e-01 -4.3888163566589355e-01</leafValues></_></weakClassifiers></stage4>
</opencv_storage>
